#ifndef WEIGHTS_PROJECTION_H
#define WEIGHTS_PROJECTION_H

// Projection layer: Linear(hidden_dim=32, embedding_dim=16)

// Shape: [16][32], stored row-major
const float proj_weight[512] = {
    /* row   0 */  0.17881621f,  0.05607811f,  0.13339606f,  0.04174296f, -0.02440321f,  0.02359354f,  0.14489402f,  0.21507114f,  0.14681560f, -0.16416743f, -0.22275983f, -0.28565189f,  0.04333248f,  0.01954765f, -0.04840812f, -0.12802878f, -0.12056618f,  0.00001699f,  0.17769901f, -0.11145251f, -0.17093183f,  0.08274933f,  0.16758209f,  0.12205370f,  0.21341199f,  0.15968879f, -0.04533657f, -0.25315332f,  0.10713999f,  0.02603225f, -0.03596814f, -0.12636447f,
    /* row   1 */  0.04464280f,  0.00980315f, -0.06813350f,  0.10883038f,  0.15626684f,  0.10894088f,  0.03161575f, -0.09593699f,  0.20758016f,  0.22781919f,  0.15477908f,  0.13099210f, -0.09090400f, -0.27950531f,  0.26851144f,  0.22814329f,  0.24580039f,  0.30483198f,  0.00335990f, -0.22980553f,  0.19891761f,  0.17402892f, -0.03926687f, -0.31161043f, -0.24210261f,  0.23329027f,  0.15164071f,  0.10794681f,  0.15148811f,  0.10471649f, -0.00693670f,  0.31094122f,
    /* row   2 */  0.20958318f,  0.17926303f, -0.23270521f, -0.07880924f,  0.08379090f,  0.14883362f,  0.17884837f, -0.12661470f,  0.23438385f, -0.22801858f, -0.21221761f, -0.24609660f,  0.15299889f, -0.13129830f, -0.16448925f, -0.22355618f, -0.20470171f, -0.17262781f,  0.11524031f,  0.16591948f, -0.04974349f, -0.02576048f,  0.13325553f,  0.21960863f,  0.18265952f,  0.05873941f, -0.16263966f,  0.04142381f, -0.05918696f, -0.13247418f,  0.28524989f, -0.17908624f,
    /* row   3 */ -0.05737876f, -0.24262585f,  0.04243385f,  0.20854144f,  0.18318643f, -0.14509454f, -0.22461608f,  0.07317262f, -0.16221197f,  0.27351129f,  0.13784514f, -0.01673185f,  0.08596060f, -0.11672189f,  0.07118570f,  0.04050630f,  0.21175432f,  0.15308259f, -0.02533210f, -0.09396502f,  0.21897429f,  0.19392568f,  0.11196724f, -0.18724346f, -0.00794573f, -0.08285096f,  0.05733773f,  0.04341698f,  0.02703289f,  0.14114986f,  0.00963856f,  0.12894371f,
    /* row   4 */  0.02333508f, -0.02149720f,  0.13631457f,  0.18291625f,  0.07423677f, -0.09193266f, -0.09382276f, -0.08084412f, -0.31440234f, -0.09308965f, -0.06217857f,  0.02575803f,  0.02760787f,  0.41867265f,  0.16234656f, -0.10345713f,  0.12817548f,  0.13151917f,  0.06890632f,  0.17721722f, -0.17582648f,  0.17469998f, -0.09746637f,  0.13303867f, -0.04110958f, -0.12559974f,  0.13928230f,  0.17864051f,  0.15027818f, -0.03071812f, -0.33212543f, -0.10418512f,
    /* row   5 */  0.11645786f,  0.04429482f, -0.11768835f, -0.16160271f,  0.21006513f, -0.06260271f, -0.18653363f,  0.18530352f,  0.13423331f,  0.33054340f, -0.00554546f,  0.25888866f,  0.19296478f, -0.16921347f, -0.07200973f,  0.22317632f,  0.16281651f,  0.29202363f,  0.13348986f, -0.15312974f,  0.21176410f, -0.05057663f, -0.01851699f, -0.13293990f, -0.03990186f,  0.16632284f,  0.05710360f, -0.06681653f,  0.18088581f,  0.23483777f,  0.08175937f,  0.22818354f,
    /* row   6 */ -0.03144449f, -0.00289261f,  0.15361571f, -0.04940195f, -0.18729892f,  0.01616066f, -0.14002620f,  0.11718613f,  0.06354152f, -0.15714031f, -0.05136827f, -0.05216300f,  0.12072135f, -0.18562129f,  0.09941778f, -0.11166651f,  0.00995128f,  0.00977815f,  0.14160013f, -0.16021630f,  0.04193961f, -0.01640444f, -0.06100718f, -0.00669968f,  0.07947356f,  0.10777872f,  0.11499581f,  0.14389326f, -0.11492965f, -0.10303326f,  0.08915208f, -0.09660062f,
    /* row   7 */ -0.00257368f, -0.02307093f,  0.06749955f,  0.25831914f, -0.11930036f, -0.16321610f,  0.01978612f,  0.04788181f, -0.15531358f, -0.03208112f,  0.12243542f,  0.01838663f,  0.02961633f,  0.04763592f,  0.18000557f,  0.22033830f,  0.21426266f,  0.29103717f,  0.05081768f, -0.17182072f,  0.06951836f,  0.18363591f,  0.06323374f, -0.14671816f, -0.15937202f,  0.00568940f,  0.30259669f,  0.19351748f,  0.13062069f,  0.22937077f, -0.09603066f,  0.06810711f,
    /* row   8 */  0.17482440f, -0.03929739f, -0.01012811f, -0.16683510f,  0.10108650f,  0.18993941f,  0.10639234f, -0.03182789f,  0.19159313f, -0.00499779f,  0.02108440f, -0.22038761f,  0.01526376f,  0.08681465f,  0.06681965f, -0.13979374f, -0.05171637f, -0.06142027f,  0.12225104f,  0.22298326f,  0.01712457f, -0.23263629f,  0.01770847f,  0.15004355f, -0.00878554f, -0.07379435f, -0.00407804f, -0.19432543f, -0.16719656f, -0.08731310f,  0.11460828f, -0.07298648f,
    /* row   9 */  0.13830826f,  0.08709870f,  0.08639887f, -0.13276209f, -0.24719599f,  0.02673644f,  0.19331196f, -0.15123332f,  0.04599007f, -0.23785445f, -0.08207013f, -0.21431246f, -0.22232251f, -0.02918453f, -0.26446453f, -0.09599447f,  0.00815225f, -0.18042371f,  0.05017060f,  0.06239944f, -0.00268302f, -0.20579167f,  0.21663471f,  0.32394508f,  0.15268219f, -0.23652586f, -0.12252321f, -0.10415359f, -0.10440080f,  0.00655857f,  0.09733790f, -0.00560475f,
    /* row  10 */  0.00082534f,  0.03592397f, -0.08582247f, -0.25297791f,  0.13640167f,  0.13019702f,  0.01551760f, -0.09420350f,  0.19372477f, -0.04210788f,  0.00979733f,  0.00890840f,  0.04504069f, -0.22870208f, -0.08895435f, -0.09426682f, -0.05008087f, -0.24137679f, -0.23351993f,  0.25995299f,  0.03156238f, -0.06768160f,  0.18081051f,  0.28047252f, -0.03241267f, -0.20037206f, -0.19131644f, -0.02023650f,  0.00794068f, -0.24093403f,  0.09233456f, -0.09973744f,
    /* row  11 */  0.03496672f,  0.02833651f, -0.12323978f,  0.14051548f,  0.09107371f, -0.17408654f, -0.12626028f, -0.10404403f, -0.20914122f,  0.29237074f,  0.09509846f, -0.04723279f, -0.05159250f,  0.15556072f,  0.06817725f, -0.04699708f,  0.20495661f,  0.29536161f,  0.11899984f, -0.16514699f, -0.08158850f, -0.04167095f,  0.13089444f, -0.31912681f, -0.06978870f, -0.12115663f,  0.21831575f,  0.02281049f,  0.10428145f,  0.14926058f, -0.06794690f,  0.24522625f,
    /* row  12 */ -0.10690910f, -0.06838778f,  0.21662775f,  0.10127958f, -0.08878480f, -0.10936262f, -0.22615728f, -0.13015194f,  0.27609888f,  0.26874483f,  0.07775292f,  0.13996249f, -0.02950423f, -0.11472538f,  0.24928042f,  0.04812942f,  0.08111007f,  0.24287300f,  0.01485969f, -0.21125603f,  0.11199945f,  0.25766540f,  0.11516862f, -0.20978050f, -0.03655391f,  0.01957569f,  0.18461134f,  0.10942467f, -0.16025101f,  0.11750628f,  0.05334324f,  0.15765190f,
    /* row  13 */ -0.02743280f, -0.00850208f, -0.12521838f,  0.05752858f, -0.17180116f,  0.19444020f,  0.08828244f,  0.08831634f,  0.07919120f, -0.12514478f, -0.17718552f, -0.11473162f, -0.12126397f, -0.20690471f,  0.02068695f, -0.07800132f, -0.00127260f, -0.27120942f, -0.17190094f,  0.21903418f,  0.07657150f, -0.06356845f,  0.11530154f, -0.01014329f,  0.13263220f, -0.13700120f, -0.27315649f, -0.11659075f, -0.03653926f,  0.04166147f,  0.22172107f, -0.06150935f,
    /* row  14 */  0.05250847f,  0.01447680f,  0.08846895f, -0.11368395f, -0.19975963f,  0.18754952f,  0.17032148f,  0.10021257f, -0.20431986f, -0.15304232f, -0.12693450f, -0.20966232f,  0.02176887f,  0.07104353f, -0.09225506f,  0.03652319f,  0.01827004f, -0.08876833f,  0.10462049f,  0.10145563f, -0.13842091f, -0.20499942f,  0.02218426f,  0.19274268f,  0.09277602f,  0.04698066f, -0.13918862f,  0.09603060f,  0.09921466f, -0.23775791f,  0.10114608f, -0.21990499f,
    /* row  15 */  0.16843764f,  0.17715630f, -0.05457147f, -0.19494231f, -0.16086954f,  0.06542482f,  0.07288262f,  0.16302067f,  0.03568060f, -0.01811338f, -0.04988943f, -0.22893941f, -0.10012546f, -0.04430857f, -0.17236610f, -0.03960743f, -0.19366100f, -0.01554544f, -0.08978523f,  0.05279887f,  0.05336534f, -0.11211436f,  0.06847125f,  0.15205212f, -0.08044966f, -0.10088053f,  0.05462668f,  0.09644133f,  0.10678805f, -0.13376358f, -0.03692784f, -0.26565033f
};

const float proj_bias[16] = {
    -0.00750381f,  0.11992041f,  0.05764462f,  0.05494932f,  0.15806691f, -0.12767465f,  0.14397137f,  0.15230146f,
     0.01953758f, -0.02403682f, -0.05788381f,  0.08302783f, -0.07118441f,  0.05913379f,  0.09969854f, -0.01940041f
};

#endif // WEIGHTS_PROJECTION_H