#ifndef WEIGHTS_LSTM_H
#define WEIGHTS_LSTM_H

// LSTM weights exported from PyTorch
// Gate order: i=input, f=forget, g=cell, o=output
// input_dim=7, hidden_dim=32

// --- Input weights: W_ih [4*hidden_dim, input_dim] = [128, 7] ---
// Shape: [128][7], stored row-major
const float lstm_weight_ih[896] = {
    /* row   0 */ -0.08852281f, -0.09710800f, -0.08382191f,  0.07590245f,  0.10883257f, -0.08523901f,  0.07575406f,
    /* row   1 */ -0.02907213f, -0.22639324f, -0.04062429f, -0.07928796f, -0.06262541f,  0.09083575f, -0.07041688f,
    /* row   2 */  0.08364759f,  0.00993327f, -0.03865722f,  0.02264521f,  0.00375935f, -0.11766945f,  0.20817311f,
    /* row   3 */ -0.22396742f, -0.29879382f,  0.05839906f,  0.11073144f, -0.12094497f, -0.02687384f, -0.07786328f,
    /* row   4 */  0.16114311f,  0.00980018f, -0.16904213f, -0.21979047f,  0.10206201f, -0.19656485f,  0.12142383f,
    /* row   5 */ -0.05263425f, -0.12914091f,  0.18840222f,  0.08355744f, -0.09869970f,  0.06613047f, -0.02026845f,
    /* row   6 */  0.03806803f,  0.15785660f,  0.13123284f,  0.11224917f,  0.15642254f,  0.04552549f,  0.14271070f,
    /* row   7 */  0.02285164f, -0.00394795f,  0.03308302f,  0.00709698f, -0.21682586f,  0.09654623f, -0.03373826f,
    /* row   8 */  0.04422230f,  0.01052947f, -0.03207534f,  0.12839352f, -0.16398714f,  0.22428106f, -0.02622512f,
    /* row   9 */  0.15404925f,  0.01747862f,  0.01595864f,  0.12211142f,  0.05359378f, -0.08466449f,  0.02007767f,
    /* row  10 */  0.04676630f,  0.00733882f, -0.06315622f, -0.01370313f, -0.08774885f, -0.01226295f, -0.19342645f,
    /* row  11 */ -0.09872900f, -0.13064286f,  0.07712709f,  0.02070391f, -0.24095096f, -0.00066308f, -0.11651850f,
    /* row  12 */ -0.02042818f, -0.07941885f, -0.13656217f, -0.07242461f, -0.15445235f,  0.09424093f,  0.06914749f,
    /* row  13 */  0.06612341f,  0.12539588f,  0.22255105f, -0.03002916f, -0.03437634f,  0.19192481f, -0.11725605f,
    /* row  14 */ -0.01208372f,  0.02984025f,  0.11613515f, -0.02452355f, -0.12572616f,  0.03161935f,  0.11527675f,
    /* row  15 */ -0.06392731f,  0.37433991f, -0.03518981f, -0.01842217f,  0.10048273f,  0.09370215f,  0.16238493f,
    /* row  16 */  0.01076268f, -0.14176176f,  0.14458972f, -0.09872764f,  0.13290393f, -0.08584525f, -0.09581961f,
    /* row  17 */ -0.12450309f, -0.10940105f, -0.08301979f,  0.18444283f, -0.02194513f, -0.05006077f,  0.14530122f,
    /* row  18 */  0.09711694f,  0.06963205f, -0.04045630f,  0.11742943f,  0.02760515f, -0.03482813f,  0.14583592f,
    /* row  19 */  0.22812772f,  0.19682658f,  0.05404491f, -0.00551856f, -0.02896539f, -0.08930393f,  0.13648878f,
    /* row  20 */  0.14745972f,  0.17929310f,  0.05046270f, -0.20066653f, -0.04854945f, -0.11214051f,  0.07867154f,
    /* row  21 */  0.10103322f, -0.18831804f,  0.02493720f, -0.07602390f,  0.03455408f,  0.09814860f, -0.14994176f,
    /* row  22 */  0.15977858f,  0.20843261f, -0.08444843f, -0.17890112f,  0.14562526f,  0.06203919f,  0.07867006f,
    /* row  23 */ -0.13782528f,  0.11464885f,  0.12024923f,  0.03434421f, -0.02427484f, -0.17326042f,  0.18764994f,
    /* row  24 */  0.03564996f,  0.03180913f,  0.03751037f, -0.01089885f, -0.12653337f, -0.05387481f,  0.07732597f,
    /* row  25 */  0.02562364f,  0.12488121f,  0.14168079f, -0.02063925f, -0.07153191f,  0.06579901f,  0.19245178f,
    /* row  26 */ -0.00217827f, -0.24272798f,  0.18403651f,  0.15198091f, -0.04736836f, -0.04618823f, -0.09839590f,
    /* row  27 */  0.01855437f, -0.15374915f,  0.04214295f, -0.09305399f, -0.15474279f, -0.05324677f, -0.18374337f,
    /* row  28 */  0.06575039f,  0.09368541f, -0.12460418f,  0.28837562f, -0.02394938f, -0.14843601f,  0.06420688f,
    /* row  29 */  0.13123628f,  0.26689678f,  0.01939063f, -0.16076250f,  0.03961361f,  0.11781830f,  0.12437218f,
    /* row  30 */ -0.04201624f, -0.05305146f,  0.20330882f,  0.19719665f, -0.12471256f,  0.12383610f, -0.11065041f,
    /* row  31 */  0.03531775f, -0.09518930f, -0.13087800f, -0.16352487f, -0.00307969f,  0.06906395f,  0.06556492f,
    /* row  32 */ -0.02209348f,  0.06455874f, -0.05978867f, -0.14259304f,  0.12063510f, -0.15308055f,  0.12058216f,
    /* row  33 */ -0.09362942f, -0.14913751f,  0.14239725f,  0.05025961f, -0.06512875f, -0.11532089f, -0.05752436f,
    /* row  34 */  0.03336425f, -0.16647950f, -0.02244368f, -0.02283507f, -0.13545436f, -0.07999297f,  0.09319127f,
    /* row  35 */  0.04881410f, -0.18523794f, -0.02590247f,  0.09148296f, -0.15195462f,  0.11633427f, -0.11761824f,
    /* row  36 */  0.09062535f,  0.10359484f,  0.13417265f,  0.03371444f,  0.11790681f, -0.16469222f, -0.03493679f,
    /* row  37 */ -0.00329094f, -0.13519654f,  0.02971465f,  0.16051719f,  0.04322212f,  0.17040347f, -0.02720625f,
    /* row  38 */ -0.15450597f, -0.06190488f,  0.01450774f,  0.19937006f, -0.17090032f,  0.18518932f,  0.02008881f,
    /* row  39 */  0.08056421f, -0.07184982f,  0.04621121f, -0.13209708f, -0.23479377f, -0.09185580f, -0.02541360f,
    /* row  40 */  0.07954575f, -0.09694308f, -0.02030152f, -0.13735661f, -0.13792177f,  0.00554694f,  0.19123933f,
    /* row  41 */  0.04577730f,  0.07388760f,  0.17199665f, -0.04387906f, -0.06192665f, -0.06232848f,  0.08046153f,
    /* row  42 */  0.06418436f,  0.01498587f,  0.16251510f,  0.09591244f,  0.16980158f, -0.04795911f,  0.07037088f,
    /* row  43 */ -0.09324834f, -0.00637671f, -0.02877735f, -0.01970152f, -0.00263688f,  0.02264083f,  0.15923406f,
    /* row  44 */  0.13543306f,  0.04863735f, -0.02077284f,  0.08824304f, -0.04497138f,  0.10651270f,  0.08629183f,
    /* row  45 */  0.18997535f,  0.25808319f, -0.00614993f,  0.05480340f, -0.11879805f,  0.21105319f,  0.02440582f,
    /* row  46 */ -0.00326085f, -0.05205448f,  0.13945076f, -0.07774370f,  0.09511296f, -0.07132363f,  0.11170217f,
    /* row  47 */  0.08188333f,  0.15173806f, -0.20741405f,  0.02078507f,  0.04462933f, -0.03386018f, -0.18938662f,
    /* row  48 */ -0.11666196f, -0.14456290f, -0.03753144f,  0.20392042f,  0.01243694f, -0.03083543f, -0.00849850f,
    /* row  49 */  0.05878455f,  0.24782482f, -0.13113159f,  0.08737879f, -0.02819370f, -0.04650268f, -0.00252119f,
    /* row  50 */ -0.01166489f,  0.01989867f,  0.19155385f, -0.13756694f, -0.01985685f,  0.11649068f, -0.08733744f,
    /* row  51 */  0.01385898f, -0.08207811f,  0.00346650f, -0.05326795f,  0.01632184f, -0.08501419f,  0.08144851f,
    /* row  52 */ -0.02188977f, -0.12764372f, -0.11016222f, -0.10837834f, -0.05437791f, -0.04237191f, -0.15396351f,
    /* row  53 */ -0.21791467f, -0.26726258f, -0.04023616f, -0.04973691f, -0.17888261f, -0.07293507f,  0.04964801f,
    /* row  54 */ -0.18884860f, -0.00533681f,  0.00825946f,  0.05972616f,  0.16658868f,  0.07188613f,  0.01533192f,
    /* row  55 */ -0.08614524f,  0.08379145f,  0.10759019f, -0.02104539f,  0.14979452f, -0.17264684f,  0.06752948f,
    /* row  56 */  0.07944646f, -0.14322996f,  0.17964382f,  0.03131108f, -0.16549656f,  0.13222545f,  0.11045073f,
    /* row  57 */ -0.18718956f,  0.18561673f,  0.06709580f,  0.04445042f,  0.08013227f, -0.01251696f, -0.04986364f,
    /* row  58 */ -0.10048012f,  0.04201934f,  0.04516155f, -0.04049911f, -0.13092081f, -0.22237089f, -0.03268686f,
    /* row  59 */ -0.23950894f, -0.07957730f,  0.15819253f,  0.19471690f,  0.05176778f,  0.03307022f,  0.09236048f,
    /* row  60 */  0.03729593f, -0.22048418f,  0.02351471f, -0.09797912f,  0.02352855f, -0.20147388f,  0.10266541f,
    /* row  61 */  0.00329874f,  0.10595941f, -0.01288467f, -0.00072129f,  0.05645323f, -0.01179486f, -0.19171025f,
    /* row  62 */ -0.13210227f,  0.03771637f, -0.00542344f,  0.08557200f, -0.17681849f,  0.21778890f,  0.00961075f,
    /* row  63 */ -0.19281751f,  0.16371039f,  0.13130152f,  0.06484307f, -0.15144967f, -0.13375089f, -0.02736146f,
    /* row  64 */ -0.00649791f,  0.12061972f,  0.10642201f,  0.13982907f,  0.18367115f,  0.10297009f, -0.16432329f,
    /* row  65 */  0.15650725f,  0.15930538f, -0.06610510f, -0.17853162f,  0.04030245f,  0.15199280f, -0.07822708f,
    /* row  66 */ -0.10186916f, -0.10748729f,  0.03994498f, -0.06375720f, -0.06355159f,  0.12363478f,  0.12755792f,
    /* row  67 */ -0.19925256f, -0.23436426f, -0.07950286f, -0.00367079f,  0.10813465f, -0.12725371f,  0.14969593f,
    /* row  68 */ -0.01993542f, -0.02943551f,  0.02757541f, -0.06800260f, -0.03118007f, -0.05650457f, -0.02235680f,
    /* row  69 */  0.02531728f,  0.12421609f,  0.00877292f,  0.14258353f,  0.18125784f,  0.09694929f, -0.13762917f,
    /* row  70 */  0.08704296f,  0.08542025f, -0.00328056f, -0.04665983f, -0.04730612f, -0.05544326f,  0.00664870f,
    /* row  71 */  0.17907993f,  0.10752439f, -0.13367444f, -0.14706546f,  0.04733510f, -0.09549258f,  0.00991554f,
    /* row  72 */  0.08638845f, -0.16236995f, -0.02126457f, -0.19103447f,  0.01720197f,  0.11503554f, -0.00222430f,
    /* row  73 */ -0.08112977f, -0.00888316f, -0.00510453f,  0.15241724f,  0.13980585f, -0.15811831f,  0.01289436f,
    /* row  74 */ -0.18235019f, -0.00375771f,  0.05898640f,  0.03610372f, -0.00582526f, -0.09062088f,  0.09086510f,
    /* row  75 */ -0.13874407f,  0.08705979f,  0.14174221f,  0.09506563f,  0.14282767f, -0.15907647f,  0.13461544f,
    /* row  76 */ -0.01181090f,  0.30232552f,  0.02527184f, -0.07409859f,  0.16722623f,  0.14222510f, -0.06620038f,
    /* row  77 */  0.17930311f, -0.05565924f, -0.12866566f,  0.21064873f,  0.13945721f, -0.09220722f, -0.03325987f,
    /* row  78 */  0.16535950f, -0.02705615f, -0.08338176f, -0.02831622f, -0.01592605f,  0.11362699f,  0.18113975f,
    /* row  79 */ -0.05192179f, -0.28295985f, -0.00876489f,  0.00432323f,  0.07379444f, -0.07706340f, -0.09766304f,
    /* row  80 */ -0.03603102f, -0.15191565f,  0.17054701f, -0.05163708f,  0.12984024f, -0.02745092f,  0.10249665f,
    /* row  81 */  0.01924416f,  0.01929095f,  0.07011779f,  0.09747259f,  0.05060676f,  0.03921330f, -0.03952750f,
    /* row  82 */ -0.08770443f, -0.09358961f, -0.07068590f, -0.19047906f,  0.12251540f,  0.21318163f, -0.02420967f,
    /* row  83 */  0.07094150f,  0.05957007f, -0.03401610f, -0.12458440f,  0.03139498f, -0.10406419f,  0.05403674f,
    /* row  84 */  0.01757774f, -0.15203395f,  0.17413965f,  0.07019131f, -0.02915234f, -0.01074284f, -0.04066961f,
    /* row  85 */ -0.10411868f, -0.17482924f,  0.05683228f, -0.00714521f, -0.18916236f, -0.02824341f,  0.00855822f,
    /* row  86 */ -0.06728145f,  0.16454199f,  0.00106135f, -0.11329702f, -0.02208657f,  0.13512826f,  0.08815081f,
    /* row  87 */  0.10159084f,  0.00951181f, -0.13193105f,  0.09341438f,  0.03563042f, -0.01160912f,  0.01828096f,
    /* row  88 */  0.06225509f,  0.16293009f,  0.14381738f,  0.09434247f, -0.05399499f, -0.03129851f,  0.01612016f,
    /* row  89 */ -0.10005237f,  0.00032858f, -0.08767807f, -0.07673844f, -0.15114148f,  0.21276549f, -0.04816745f,
    /* row  90 */ -0.07916375f, -0.09734400f,  0.09122698f,  0.17092733f, -0.06560382f,  0.01571816f,  0.06126949f,
    /* row  91 */ -0.14910743f,  0.01788670f,  0.06056973f, -0.02191634f, -0.17433417f,  0.19179343f,  0.05153391f,
    /* row  92 */  0.04966798f,  0.10394669f,  0.04210144f,  0.14538139f,  0.28115445f, -0.00418021f, -0.17038864f,
    /* row  93 */ -0.09598824f, -0.23003650f,  0.13629630f,  0.11300819f, -0.15147409f, -0.12621431f, -0.03491564f,
    /* row  94 */ -0.03951695f, -0.00515410f, -0.17017953f,  0.03697838f, -0.06493348f,  0.04966151f, -0.04409208f,
    /* row  95 */ -0.19081798f,  0.01572257f,  0.14646888f, -0.05795426f,  0.04372177f, -0.13669001f, -0.03284615f,
    /* row  96 */ -0.20819859f, -0.16099946f,  0.17083791f,  0.14993818f, -0.13859387f,  0.07473508f, -0.05143717f,
    /* row  97 */ -0.21392809f, -0.25037745f,  0.10493689f, -0.13776293f,  0.05930705f,  0.14872186f,  0.14439110f,
    /* row  98 */ -0.04910479f, -0.03051372f, -0.06070201f, -0.16649230f, -0.16918029f, -0.12523463f,  0.01280390f,
    /* row  99 */  0.01156791f, -0.17442560f,  0.01550660f,  0.04199127f, -0.15702370f,  0.06020730f,  0.12671433f,
    /* row 100 */ -0.00714838f,  0.20089580f,  0.10786317f,  0.00687775f, -0.19214849f, -0.15850963f,  0.13230553f,
    /* row 101 */  0.01916802f, -0.32866484f,  0.13120756f, -0.08535738f, -0.16455330f, -0.11423551f, -0.11605138f,
    /* row 102 */  0.04489825f, -0.16332467f,  0.16598153f,  0.05536837f,  0.10349281f, -0.13465951f,  0.16983396f,
    /* row 103 */ -0.12132301f,  0.09230546f,  0.10043007f, -0.11388402f, -0.05566274f, -0.11801211f, -0.06397033f,
    /* row 104 */ -0.07800853f, -0.06618728f,  0.13006522f, -0.12717304f,  0.17380998f,  0.14798635f,  0.05695309f,
    /* row 105 */ -0.04531213f,  0.15069357f,  0.13769893f, -0.03464967f, -0.09684223f,  0.09583499f,  0.11070580f,
    /* row 106 */ -0.11826574f, -0.05047610f, -0.05137979f,  0.04720041f,  0.04650681f,  0.03361100f,  0.03124619f,
    /* row 107 */  0.02450892f,  0.18125324f, -0.05360451f, -0.03119569f, -0.07425761f,  0.05001829f,  0.06984767f,
    /* row 108 */ -0.11530311f, -0.22358732f,  0.19431235f, -0.05930997f,  0.07236864f, -0.04509876f, -0.03157618f,
    /* row 109 */  0.17012781f,  0.16475259f,  0.06358176f,  0.05242699f, -0.08641049f,  0.14562312f,  0.09923293f,
    /* row 110 */ -0.17832795f, -0.14015359f,  0.23415907f, -0.08747125f, -0.06364309f, -0.03611705f, -0.06012994f,
    /* row 111 */ -0.05878861f,  0.15670289f, -0.14933641f,  0.06969679f,  0.21918511f, -0.05757859f, -0.00921974f,
    /* row 112 */ -0.18865824f,  0.01472686f, -0.07980128f, -0.03376234f,  0.13872908f,  0.04362636f,  0.11544019f,
    /* row 113 */  0.02868423f,  0.00408415f,  0.10500808f,  0.09633645f,  0.11224797f,  0.05956117f,  0.09733912f,
    /* row 114 */ -0.15327841f, -0.06877562f,  0.18669318f, -0.15894148f,  0.01614758f, -0.12718961f,  0.14232641f,
    /* row 115 */  0.00033065f,  0.14395195f,  0.21817751f, -0.12583748f, -0.01984466f,  0.02100585f,  0.18765239f,
    /* row 116 */ -0.00668018f, -0.00254803f, -0.07812562f, -0.23399566f,  0.19063996f, -0.03652520f,  0.15005574f,
    /* row 117 */  0.01580183f, -0.03108714f,  0.03113005f,  0.04614246f, -0.03355593f, -0.02595711f,  0.23057082f,
    /* row 118 */ -0.13921791f, -0.05596895f, -0.06379701f, -0.13538900f, -0.13063677f,  0.14232208f,  0.11823443f,
    /* row 119 */  0.07598460f,  0.07877824f,  0.22962451f, -0.10005206f, -0.04914162f,  0.03171864f,  0.22758037f,
    /* row 120 */ -0.00837402f, -0.03430702f,  0.19379663f, -0.04890690f,  0.00112009f, -0.00075465f,  0.07503262f,
    /* row 121 */  0.10062958f, -0.03333623f,  0.04772319f, -0.02703157f, -0.06860813f, -0.11696319f,  0.03131291f,
    /* row 122 */ -0.16140130f, -0.28043362f,  0.13659286f,  0.15592998f,  0.05807647f,  0.09185486f, -0.06851633f,
    /* row 123 */ -0.15783848f, -0.18629242f, -0.04735862f,  0.11668009f, -0.02967010f,  0.08892487f,  0.01303901f,
    /* row 124 */  0.06431305f,  0.19001697f,  0.05911323f,  0.08047087f,  0.10324912f, -0.03706897f,  0.01024718f,
    /* row 125 */  0.05844681f, -0.04890998f,  0.14926967f, -0.14592908f,  0.02944238f, -0.00750437f,  0.13405135f,
    /* row 126 */ -0.12669897f,  0.02344439f,  0.17922474f,  0.02656120f, -0.10716714f, -0.04910167f, -0.09705357f,
    /* row 127 */ -0.07523797f, -0.07554638f,  0.22505943f,  0.05320225f, -0.00981917f, -0.10965461f,  0.24919163f
};

// --- Hidden weights: W_hh [4*hidden_dim, hidden_dim] = [128, 32] ---
// Shape: [128][32], stored row-major
const float lstm_weight_hh[4096] = {
    /* row   0 */ -0.10896862f,  0.07900800f, -0.10380734f,  0.02586893f, -0.12154770f, -0.10776644f, -0.06195146f, -0.01331879f,  0.00112372f,  0.16411474f, -0.00522034f,  0.13013627f, -0.03751202f,  0.04130323f,  0.03123962f, -0.11720609f,  0.17551990f,  0.03133440f,  0.04462431f, -0.20872946f, -0.04900214f,  0.12437955f, -0.02459872f,  0.05628269f,  0.12665488f,  0.01642042f,  0.07047157f,  0.09729853f, -0.18603250f, -0.12433307f,  0.04164579f, -0.06902861f,
    /* row   1 */  0.02413087f, -0.19843802f,  0.12134238f, -0.07865954f, -0.09126493f, -0.17449181f, -0.22436076f,  0.03900273f,  0.01936827f,  0.10798859f,  0.00254271f,  0.15264505f, -0.18137014f, -0.12810639f, -0.06180446f, -0.03284423f, -0.00083433f, -0.05507150f, -0.15382224f, -0.11256985f,  0.09485779f, -0.06503663f,  0.10204469f, -0.02978759f,  0.01491072f, -0.17555255f,  0.04175133f,  0.01420969f,  0.01857025f,  0.12412678f, -0.08669623f,  0.11656809f,
    /* row   2 */ -0.16633169f, -0.11987006f, -0.10356124f, -0.06131529f,  0.03460525f, -0.01332989f, -0.12397490f, -0.09775316f, -0.09134099f,  0.15559296f,  0.10981674f, -0.11426912f,  0.10766831f,  0.11158077f,  0.11789768f, -0.03198784f, -0.11752649f, -0.17463879f,  0.04815016f,  0.13088466f,  0.14112180f,  0.02139949f,  0.00486079f, -0.05525489f, -0.07669348f, -0.06977673f,  0.04878021f,  0.13863033f, -0.11624438f,  0.15205340f, -0.09898387f, -0.15497705f,
    /* row   3 */ -0.05679965f,  0.05672826f,  0.20792027f, -0.05332690f,  0.08218378f, -0.03108226f, -0.17494684f, -0.02999656f, -0.04770418f, -0.04822008f,  0.10600929f,  0.13938378f,  0.12471385f,  0.20351522f,  0.04568016f, -0.13720462f,  0.03705689f,  0.05354436f, -0.10239609f, -0.05661262f,  0.13433674f, -0.09414606f, -0.14362825f, -0.05779723f, -0.20470382f,  0.12344006f,  0.20223734f,  0.21963838f, -0.21037102f, -0.05719934f, -0.02164683f, -0.00154024f,
    /* row   4 */ -0.02237339f,  0.19695976f, -0.16565768f, -0.14430107f, -0.13043967f, -0.06952871f, -0.05730962f, -0.10356110f, -0.21404058f, -0.13718942f, -0.02166245f,  0.05881914f, -0.08474030f, -0.12045257f,  0.00878989f,  0.11090083f, -0.11248969f, -0.08931048f, -0.00013223f,  0.14091173f, -0.23390590f,  0.17086487f,  0.10224082f, -0.08364742f, -0.00159433f, -0.15167210f,  0.00430331f,  0.06240949f,  0.12801777f, -0.04806702f,  0.07483368f, -0.00745272f,
    /* row   5 */  0.12540062f, -0.01966429f,  0.12202954f,  0.03782390f, -0.13744494f, -0.13778561f, -0.20356001f, -0.23088339f, -0.15587528f,  0.25671029f,  0.19672535f, -0.07934149f, -0.14345928f,  0.22056244f, -0.06577509f,  0.02061019f,  0.05558326f,  0.18251941f,  0.07569679f,  0.04312332f, -0.12100890f,  0.10532633f,  0.02565137f, -0.16680758f, -0.11658046f, -0.18456031f,  0.04054466f,  0.06114002f, -0.09562171f,  0.06422646f, -0.08218856f, -0.06437542f,
    /* row   6 */ -0.11507574f, -0.25738245f,  0.05347564f, -0.03962935f, -0.21299198f, -0.03074750f, -0.09949005f,  0.07673281f,  0.10908151f, -0.20421095f,  0.09769668f,  0.07919663f, -0.16767657f, -0.03637093f, -0.01043709f, -0.21800467f,  0.04690767f, -0.09160635f, -0.12718651f, -0.08855213f,  0.19128844f,  0.12724158f, -0.05966764f,  0.14093848f, -0.06455542f, -0.20265710f,  0.14816798f, -0.02255170f,  0.12814854f,  0.19662017f,  0.05860611f, -0.03938425f,
    /* row   7 */  0.08675663f,  0.04285330f,  0.05770195f, -0.02568670f, -0.04699042f, -0.02000412f,  0.13313308f,  0.08597632f, -0.26339516f,  0.07321639f, -0.08035854f,  0.16731980f,  0.08146367f, -0.06666555f, -0.02264593f,  0.06167415f, -0.05151109f,  0.07430803f, -0.02825911f, -0.01014941f, -0.01955487f,  0.17169167f, -0.02256126f, -0.12303858f,  0.05685254f, -0.12561987f, -0.06415586f,  0.18122067f, -0.10170639f,  0.08062013f, -0.02570278f, -0.01441414f,
    /* row   8 */ -0.15540913f, -0.15268783f, -0.06077021f, -0.06440537f,  0.05833992f,  0.09451876f,  0.09934137f, -0.05981410f, -0.10149141f,  0.15373123f, -0.10216371f,  0.01133186f, -0.05726378f, -0.02944749f,  0.12144428f,  0.08321987f,  0.03143181f, -0.08127442f,  0.05646334f,  0.00663099f,  0.14842385f, -0.12213030f,  0.08999404f,  0.11022525f,  0.02379862f, -0.09394217f, -0.07908382f,  0.07245485f, -0.13786303f, -0.11630084f, -0.06927294f, -0.03865300f,
    /* row   9 */  0.07097476f,  0.00982831f,  0.18862636f,  0.20013915f, -0.10052878f, -0.05541560f,  0.10303490f, -0.18562001f,  0.13814220f, -0.02588735f,  0.18298322f,  0.10568988f,  0.14749196f, -0.05212106f,  0.11393327f, -0.12482264f,  0.16114679f, -0.06347634f,  0.02423573f,  0.09787918f, -0.02955149f, -0.06910051f, -0.11219648f, -0.13603853f, -0.16225831f,  0.12480849f,  0.00932944f, -0.01689652f, -0.02183588f,  0.16145870f, -0.16000502f, -0.14725243f,
    /* row  10 */ -0.12870120f, -0.00073634f, -0.09353236f, -0.10108003f, -0.02631629f,  0.00614994f, -0.08480557f, -0.16992149f, -0.26695532f, -0.06163464f,  0.22436437f, -0.08251265f, -0.15865169f, -0.06486796f, -0.01471370f,  0.16240314f, -0.01157988f, -0.07077884f, -0.13476008f, -0.24545243f,  0.02069030f,  0.08400755f,  0.05458410f, -0.07869398f, -0.17271645f, -0.11984754f, -0.04725489f,  0.09272887f,  0.09066293f,  0.00143770f, -0.17977194f,  0.11108245f,
    /* row  11 */  0.01655287f, -0.13693298f,  0.21263620f,  0.04173658f,  0.02879797f, -0.06431956f, -0.09936912f, -0.04844296f,  0.11474187f,  0.20332153f,  0.06264950f,  0.09715430f, -0.23378190f,  0.00147478f,  0.09148005f, -0.23627368f, -0.05534799f,  0.08433791f, -0.01771664f,  0.15755232f, -0.18395300f,  0.14406729f,  0.01102150f,  0.01510701f, -0.03469890f, -0.08180793f,  0.15161039f,  0.02875083f,  0.02220248f,  0.09715344f, -0.21089223f,  0.18742993f,
    /* row  12 */ -0.02440136f,  0.04603429f,  0.11495811f,  0.12089019f,  0.14623162f,  0.08513230f,  0.08082377f,  0.22680998f, -0.19623935f, -0.12838507f, -0.06993047f,  0.04722525f,  0.02867246f,  0.00806448f,  0.06679717f, -0.08293548f,  0.09585220f, -0.00487086f,  0.02089040f, -0.06013070f, -0.20073496f, -0.01926108f, -0.09070235f, -0.04255668f,  0.02663231f,  0.12617022f,  0.21387336f,  0.14210783f, -0.11407748f,  0.06858218f,  0.09260920f,  0.03452997f,
    /* row  13 */ -0.10182361f, -0.10528309f,  0.18775091f,  0.21842113f, -0.07059734f, -0.11517341f,  0.01488653f, -0.26451799f,  0.01552514f,  0.19925439f,  0.13223739f,  0.11928254f, -0.05190625f,  0.02457882f,  0.16208932f, -0.18012404f,  0.13666713f,  0.16707276f, -0.08783539f, -0.15889186f,  0.08543234f,  0.00356806f, -0.12514079f, -0.22897837f, -0.28247395f, -0.12337523f,  0.05176514f,  0.00247876f,  0.04907403f,  0.30047292f, -0.24794354f,  0.34148353f,
    /* row  14 */  0.06635534f, -0.12635165f,  0.15774156f,  0.03299457f,  0.04061927f, -0.14698885f,  0.14477074f,  0.02571859f,  0.16873237f, -0.13011339f, -0.09771978f,  0.17950350f,  0.07542065f, -0.17333579f,  0.10865563f, -0.14861076f,  0.05562742f,  0.15091832f, -0.06331648f, -0.16664858f,  0.08336249f,  0.01329391f,  0.11339742f, -0.13224535f,  0.12261942f, -0.05174639f,  0.06839865f,  0.12897687f, -0.17810981f,  0.00655847f, -0.01594966f,  0.17721845f,
    /* row  15 */ -0.00943990f, -0.02887882f, -0.18423480f, -0.11339988f,  0.01631097f,  0.14737755f,  0.03680815f, -0.03240837f,  0.03776293f,  0.06277112f, -0.22880885f, -0.03597664f,  0.14187047f, -0.04136406f,  0.06445976f,  0.01273429f, -0.13810419f,  0.07958714f, -0.07627845f,  0.05413922f,  0.02510029f, -0.05964547f, -0.17929755f,  0.00500178f, -0.04002365f,  0.18323295f,  0.12097410f, -0.09483492f,  0.08958872f,  0.06319520f, -0.06966963f, -0.06679615f,
    /* row  16 */ -0.05109511f, -0.21200567f, -0.10272670f,  0.25764397f, -0.00702861f, -0.20484917f, -0.00826082f,  0.05401369f, -0.03806747f,  0.09230897f,  0.01344340f,  0.26078224f, -0.05434178f, -0.07478885f,  0.01209674f, -0.13276878f,  0.08309221f, -0.09131844f,  0.09453197f, -0.00501757f, -0.15695024f,  0.03987064f,  0.14984772f,  0.01688866f, -0.24892983f, -0.07923170f,  0.02054537f,  0.23023266f,  0.09309672f, -0.12233926f,  0.03271458f,  0.06088358f,
    /* row  17 */  0.14568588f, -0.14750198f, -0.01488162f, -0.10799161f, -0.04246675f,  0.15252773f,  0.12907015f, -0.10164799f, -0.15201147f,  0.07894773f, -0.06506146f, -0.12837127f, -0.14291427f, -0.00772370f, -0.04152553f,  0.12112832f,  0.13716614f,  0.10480497f, -0.16051361f,  0.12713161f,  0.07903628f, -0.02474267f,  0.18193908f,  0.15504432f, -0.12139607f, -0.03524015f, -0.00777587f,  0.19553667f, -0.16712813f,  0.03987054f,  0.02613753f, -0.02669785f,
    /* row  18 */ -0.07752666f, -0.12361028f, -0.04016597f,  0.03957506f,  0.03112291f,  0.13422213f, -0.03355089f,  0.15672849f, -0.28671539f, -0.16757230f,  0.00134324f, -0.07730902f,  0.10045634f,  0.07383712f,  0.07091829f, -0.02423896f,  0.06113510f, -0.15047044f,  0.15590826f,  0.18537323f, -0.11301596f,  0.09146017f, -0.09098457f, -0.02661664f,  0.12941416f, -0.19297941f, -0.05336925f,  0.01706389f, -0.12865654f, -0.08245083f, -0.16324718f, -0.08212911f,
    /* row  19 */  0.01744292f,  0.05548735f,  0.00688483f,  0.02287020f, -0.12139088f, -0.06191014f,  0.07819588f, -0.08925376f, -0.05681130f, -0.03115780f,  0.17729260f, -0.11059795f, -0.12951569f, -0.10184504f, -0.14912102f,  0.01730464f,  0.09199223f, -0.09006652f,  0.04845851f, -0.11464573f,  0.07385284f, -0.02773924f,  0.18584563f,  0.01457867f,  0.08376380f,  0.12380180f, -0.08475385f, -0.12306046f, -0.01051408f,  0.19134930f, -0.05368045f, -0.12549888f,
    /* row  20 */ -0.07467147f, -0.13941796f, -0.10936763f, -0.03543606f,  0.01322612f, -0.10349452f, -0.07790890f, -0.05886769f,  0.21123968f,  0.05191367f, -0.14467670f, -0.06759880f,  0.14555317f,  0.06601895f,  0.05702611f, -0.12415046f,  0.11371874f, -0.23046866f, -0.09540066f, -0.02480598f,  0.06261022f, -0.07930087f, -0.10493533f, -0.08404183f,  0.22804961f, -0.10383973f, -0.18243246f, -0.14714369f, -0.18846473f, -0.12610789f,  0.21626228f,  0.02536034f,
    /* row  21 */ -0.12966466f,  0.08310799f,  0.12330764f,  0.07817399f,  0.12962483f, -0.05446138f, -0.18633057f, -0.04630964f, -0.35423309f, -0.05240311f,  0.20091777f,  0.18598458f,  0.00105327f, -0.06036059f,  0.13584588f, -0.16285759f,  0.14010639f,  0.06700824f, -0.10359049f,  0.09795083f, -0.17908618f, -0.07909186f,  0.01552337f, -0.20109186f, -0.17771237f,  0.08885819f,  0.07764531f, -0.09427791f, -0.17337564f, -0.08189168f, -0.11860938f, -0.00362782f,
    /* row  22 */  0.17299825f,  0.03761267f, -0.05088910f,  0.03371579f,  0.15613832f,  0.09624318f, -0.12508047f,  0.11002287f,  0.07715113f, -0.14177014f, -0.08602983f,  0.09012218f,  0.10313097f,  0.11888723f, -0.16178170f,  0.08998361f,  0.14926112f, -0.13210025f,  0.17688850f, -0.07038594f,  0.13275811f,  0.12645400f, -0.05702517f,  0.06001864f,  0.03456441f,  0.07060371f,  0.00862254f,  0.11551796f, -0.04460462f,  0.13106962f,  0.01431249f, -0.14528160f,
    /* row  23 */  0.12783040f, -0.08372309f,  0.19296320f, -0.10451856f, -0.18004984f, -0.05956630f,  0.05050180f, -0.04019058f, -0.16858967f,  0.14221272f,  0.18243110f, -0.14344703f, -0.14506230f, -0.03311110f, -0.07363232f,  0.00936006f, -0.05970933f,  0.04193917f,  0.14693508f, -0.12690072f,  0.02999244f,  0.06636349f,  0.01858577f,  0.08079033f, -0.06583270f,  0.01074805f, -0.05563491f,  0.08655743f,  0.07818668f, -0.09178668f, -0.12644450f, -0.09100387f,
    /* row  24 */ -0.04234875f, -0.02388883f,  0.07645170f,  0.17545585f, -0.05987370f, -0.08867162f,  0.04371857f,  0.10353032f, -0.00508172f,  0.01346622f, -0.05055075f,  0.10040175f,  0.08811063f, -0.05391123f, -0.16744977f, -0.03076252f, -0.07841757f, -0.14482768f,  0.07119406f, -0.16975093f,  0.02604464f,  0.15981637f,  0.14345218f, -0.11443004f,  0.04074972f, -0.05343974f, -0.00755908f, -0.04341373f, -0.15479977f, -0.03513600f, -0.08276130f,  0.09510428f,
    /* row  25 */ -0.18123047f,  0.00624024f, -0.00119565f, -0.14283882f, -0.14355446f,  0.12897244f, -0.12920985f,  0.08371721f, -0.19361724f,  0.11911782f,  0.11431080f, -0.03570016f, -0.05712278f,  0.04751765f,  0.12836140f,  0.04207845f,  0.06353927f, -0.10653873f, -0.13923277f,  0.20066905f, -0.13164958f,  0.09713124f,  0.02162676f, -0.03180638f,  0.17973575f, -0.08391384f,  0.11642469f,  0.08275784f, -0.17444147f,  0.03211897f, -0.01264255f,  0.11798711f,
    /* row  26 */ -0.17214517f, -0.10645747f,  0.11095351f, -0.04296586f, -0.10174090f, -0.07364472f, -0.25112849f, -0.17364964f, -0.31725973f, -0.03428634f, -0.04828810f, -0.03304074f, -0.14142515f,  0.05880367f,  0.10422718f,  0.03386872f,  0.21573198f,  0.14923012f, -0.16962700f,  0.08997933f, -0.09113661f,  0.11682645f, -0.03636214f, -0.16008122f, -0.12202753f,  0.05674855f,  0.02213003f,  0.10754217f,  0.05213896f, -0.17924696f, -0.00084970f, -0.14273927f,
    /* row  27 */  0.04569058f, -0.13550876f, -0.16966733f,  0.06593596f, -0.15751424f, -0.20716527f, -0.12637305f, -0.01307362f, -0.31844324f,  0.16213986f,  0.16582164f, -0.05541584f,  0.00043401f,  0.00679221f, -0.11205306f, -0.08229723f,  0.00864295f, -0.09577260f, -0.09175459f, -0.02334360f, -0.07655511f, -0.01654275f, -0.00744439f, -0.24641204f,  0.00542221f,  0.16827559f,  0.17937191f,  0.08208854f, -0.16335890f, -0.08437306f, -0.02455587f, -0.05222004f,
    /* row  28 */  0.16325109f,  0.09226664f, -0.16326137f,  0.10730187f,  0.10683541f,  0.10911997f,  0.19377403f,  0.09694024f, -0.15808962f,  0.00508026f, -0.13040519f, -0.13590607f, -0.02997027f,  0.07236936f,  0.09778310f,  0.12244651f, -0.02875504f, -0.13231073f,  0.09971125f, -0.00229883f, -0.10352657f, -0.03643397f, -0.15161933f, -0.10643619f, -0.11843100f,  0.10700550f, -0.17062780f,  0.11590376f, -0.01959123f, -0.03421326f, -0.03712398f,  0.09167551f,
    /* row  29 */  0.17759089f,  0.19387016f, -0.15735035f, -0.08883316f,  0.13654408f, -0.06759386f, -0.09340809f,  0.02358332f,  0.14026175f, -0.13002965f, -0.04335870f, -0.25411361f,  0.06433696f, -0.05452354f,  0.11915395f,  0.14884907f, -0.18749858f, -0.11617140f, -0.09644897f,  0.01177193f,  0.04802845f,  0.03423640f, -0.00477762f,  0.19481814f, -0.03695555f, -0.01244917f, -0.05514079f,  0.02614126f, -0.05635520f,  0.09931249f, -0.06657621f, -0.09376832f,
    /* row  30 */  0.05926879f, -0.22372271f,  0.03562866f, -0.08698478f, -0.13553526f,  0.06577766f, -0.21250415f,  0.11519749f, -0.22557297f, -0.06779012f,  0.22080798f, -0.05811344f,  0.08048784f,  0.28510663f,  0.05713055f,  0.11960307f, -0.00883456f,  0.22652437f,  0.01759800f, -0.06068812f, -0.03817303f,  0.18192220f, -0.03954451f, -0.22197567f, -0.11881305f,  0.10501323f, -0.06617018f, -0.04636599f,  0.03122012f,  0.08604343f, -0.02494802f,  0.13189560f,
    /* row  31 */ -0.08223739f, -0.13373843f, -0.03945031f, -0.00535129f, -0.14660814f, -0.03093156f, -0.05665431f, -0.07171983f, -0.12510619f,  0.06230671f,  0.17965446f, -0.18310112f, -0.23737840f, -0.01814401f, -0.14547740f, -0.01099048f, -0.00185271f, -0.06027061f, -0.14198968f, -0.03485987f, -0.10686738f,  0.21238925f,  0.12448408f,  0.24157351f, -0.05918442f,  0.07209273f,  0.19189304f, -0.07568266f, -0.26088428f,  0.03979931f, -0.11677492f,  0.00801913f,
    /* row  32 */  0.08012079f, -0.09901717f,  0.18824123f, -0.05657412f, -0.01886304f, -0.05809542f,  0.12404823f, -0.10103847f, -0.14690234f, -0.15281211f, -0.17064084f,  0.07721233f,  0.07085858f,  0.07304356f,  0.05896657f, -0.09002180f,  0.16635907f,  0.14576085f, -0.01037592f, -0.02131556f, -0.13723834f,  0.08759937f,  0.16830820f, -0.16809121f,  0.08812887f, -0.12728989f,  0.08817460f,  0.02126572f, -0.02487648f,  0.09474723f,  0.02788504f, -0.11458386f,
    /* row  33 */ -0.15864295f, -0.09286238f,  0.16980872f,  0.23082176f, -0.05536558f, -0.05663840f, -0.18136922f, -0.22850981f, -0.30237135f,  0.21664119f,  0.09135193f, -0.03879514f,  0.07066211f, -0.03824253f, -0.02999229f, -0.14883089f,  0.05718388f,  0.15350978f, -0.24922684f,  0.07719853f,  0.06265070f,  0.17098235f,  0.14183901f, -0.07991862f, -0.19775295f, -0.04392017f,  0.23221792f,  0.25802663f, -0.19120832f,  0.02521812f, -0.15149103f,  0.06637067f,
    /* row  34 */ -0.10441908f,  0.09347317f,  0.03733255f,  0.04074732f, -0.05776304f,  0.11945558f, -0.05498073f,  0.06261626f, -0.06371380f, -0.02151242f,  0.09880452f, -0.03911103f,  0.09318415f,  0.12952073f, -0.08584005f, -0.14001939f,  0.03467568f, -0.12498300f, -0.00010038f, -0.02163436f, -0.01611196f,  0.11969275f, -0.08996440f, -0.02218992f,  0.00819450f, -0.07332445f,  0.05571616f,  0.13605195f, -0.12528838f, -0.01123646f, -0.04836310f, -0.14637968f,
    /* row  35 */ -0.03621474f,  0.04380923f,  0.11832940f, -0.05052530f, -0.14414060f, -0.10068784f,  0.09757623f, -0.08909527f, -0.02800526f, -0.01742727f, -0.03333895f, -0.09818207f, -0.03481146f,  0.04581549f,  0.03872890f,  0.12516798f, -0.03849081f, -0.10260724f,  0.05313242f,  0.09869742f,  0.05210591f, -0.07389106f,  0.18485864f,  0.05805622f, -0.07796335f,  0.03097964f,  0.08000726f, -0.08625885f, -0.23300676f, -0.08855436f, -0.02958866f,  0.17894436f,
    /* row  36 */  0.14027463f,  0.05007545f, -0.15559468f, -0.12956834f, -0.17276695f, -0.10083553f,  0.06363770f, -0.15111884f, -0.21143103f, -0.20423283f, -0.16578047f, -0.10319733f, -0.06471330f, -0.12370747f, -0.00131282f,  0.10749061f,  0.06172865f, -0.22757605f, -0.09936648f, -0.10508103f, -0.22087093f, -0.14521234f,  0.05053931f,  0.19032477f,  0.11411885f,  0.06812493f, -0.02502746f, -0.05138641f,  0.04209651f, -0.24414298f, -0.03343885f, -0.02040545f,
    /* row  37 */  0.05903487f, -0.09541259f,  0.07206899f,  0.04593169f, -0.17549720f, -0.13728969f,  0.04774649f, -0.19653268f, -0.19360578f,  0.24139626f, -0.05975593f,  0.23579752f,  0.12745459f, -0.08227602f,  0.10589036f,  0.07308616f,  0.07316642f,  0.09285719f, -0.06910122f,  0.08220928f, -0.10843305f,  0.16822854f,  0.18025166f, -0.09695416f, -0.01919317f, -0.01663571f, -0.02947419f, -0.08748592f,  0.06613456f, -0.02137636f, -0.09433070f,  0.13360588f,
    /* row  38 */ -0.00743521f, -0.21206446f, -0.02399337f,  0.17463923f, -0.13415317f, -0.07961746f, -0.07460495f, -0.04793135f,  0.02771929f, -0.00054752f,  0.10087308f,  0.19528751f, -0.17812870f,  0.01907613f,  0.17907852f, -0.06497096f,  0.13987561f, -0.00511417f, -0.03877106f,  0.10063772f,  0.06148992f,  0.25678971f,  0.13914219f, -0.19896881f, -0.05772426f, -0.17674886f,  0.27695534f,  0.15809959f,  0.01436748f, -0.11621622f, -0.24947411f, -0.03653984f,
    /* row  39 */  0.02636501f, -0.18958887f,  0.20246953f,  0.16453773f,  0.00287021f, -0.21333605f, -0.16368926f, -0.15685773f, -0.13133508f,  0.15522662f,  0.09258007f, -0.03792215f, -0.11597764f,  0.08643132f,  0.20882775f, -0.05811356f, -0.02336550f, -0.00304525f,  0.15052684f,  0.12531479f, -0.15834482f,  0.25475493f,  0.19951582f, -0.14663075f, -0.06868622f,  0.09746632f, -0.11866271f,  0.18767637f, -0.08083133f,  0.02374235f, -0.20248725f,  0.00559541f,
    /* row  40 */ -0.17434467f,  0.09345587f,  0.02757181f, -0.01753778f,  0.13168646f,  0.11168764f, -0.12742752f, -0.01083824f, -0.01644337f,  0.16720869f, -0.14699288f, -0.07494913f, -0.13602985f, -0.01043866f,  0.10330865f, -0.09779114f, -0.04364278f, -0.07380260f,  0.03999364f,  0.12676534f,  0.04745277f,  0.18234938f,  0.05844660f, -0.04989524f,  0.16838303f, -0.03171186f, -0.08525760f,  0.19072729f, -0.19274081f,  0.01785221f,  0.14302716f,  0.11339033f,
    /* row  41 */  0.01677414f,  0.06841317f,  0.15290466f, -0.10292922f, -0.20152009f, -0.14819485f, -0.03120307f,  0.07199264f, -0.02516655f,  0.07372250f,  0.13040869f, -0.01150267f, -0.04939606f, -0.15413070f,  0.16224629f,  0.07972742f,  0.17305350f, -0.16773543f,  0.03475562f, -0.02377786f, -0.07454794f,  0.11626330f,  0.12936434f, -0.21053694f,  0.01112226f,  0.06485321f,  0.17012408f, -0.08767785f, -0.18671116f, -0.08541322f, -0.12478709f,  0.16104913f,
    /* row  42 */ -0.10195754f, -0.21608882f,  0.00590873f, -0.06246383f,  0.05633260f, -0.10586093f, -0.04220588f, -0.15321745f, -0.30689988f,  0.15602857f, -0.00059697f,  0.14257917f,  0.14878452f, -0.14842385f,  0.16155213f, -0.09636236f,  0.16004023f,  0.13246991f, -0.00859426f,  0.02703998f,  0.12702274f,  0.21193010f,  0.10970204f, -0.16993769f, -0.18364036f,  0.16215903f,  0.10165304f,  0.11244040f, -0.06002023f,  0.11412176f,  0.05457772f, -0.11902487f,
    /* row  43 */ -0.02496603f,  0.10774200f,  0.03248183f,  0.04762431f,  0.12316059f, -0.10624974f,  0.05803081f, -0.18078102f,  0.13425615f, -0.07389462f,  0.16103725f,  0.11819270f,  0.06362046f, -0.07952654f,  0.12237713f,  0.09841646f,  0.03676821f, -0.18472067f,  0.02514051f,  0.21096885f,  0.10801186f, -0.13617581f, -0.00413264f,  0.09071185f,  0.05531217f, -0.08828966f,  0.14699508f,  0.11411097f, -0.08258231f, -0.21340755f,  0.07604796f,  0.08861511f,
    /* row  44 */ -0.02134397f, -0.00445111f,  0.15303552f,  0.04666092f, -0.06715091f, -0.04377896f,  0.08428361f, -0.03073721f, -0.11072323f, -0.05515284f,  0.15114510f, -0.08462276f,  0.02841850f,  0.03765661f, -0.12891620f,  0.09725689f, -0.08504465f, -0.10575677f, -0.17266504f, -0.01441264f,  0.09204155f, -0.04476148f,  0.09545756f,  0.11981364f,  0.00369683f, -0.07958111f,  0.00314441f,  0.02083352f, -0.03801890f,  0.06282439f,  0.06571262f, -0.15153405f,
    /* row  45 */ -0.05848287f,  0.02557060f, -0.05938923f,  0.13938446f, -0.08960988f, -0.15530014f,  0.14168774f, -0.21084534f, -0.00063853f, -0.04559068f,  0.21215051f, -0.13301316f, -0.06665782f,  0.01342281f,  0.15424788f,  0.16576332f,  0.14811318f, -0.04362100f,  0.12913391f, -0.27864507f,  0.09401448f,  0.17609249f, -0.15502909f, -0.10108233f, -0.16446361f,  0.06216668f,  0.16774483f, -0.11849977f, -0.07804321f,  0.07789080f, -0.16187553f,  0.19216540f,
    /* row  46 */  0.01305050f,  0.07531295f,  0.06586625f,  0.13617560f, -0.13460825f,  0.04724652f, -0.12015662f, -0.06788348f, -0.10175858f, -0.08488969f,  0.12693992f,  0.00914562f, -0.00013255f, -0.13519093f,  0.04582404f, -0.14761344f, -0.14465001f, -0.08643563f, -0.13755676f,  0.15320015f, -0.02767961f, -0.01737312f, -0.15047275f, -0.16783127f, -0.05579397f, -0.05660304f,  0.01919193f,  0.00598588f,  0.02686488f, -0.11038807f, -0.12177680f,  0.17057514f,
    /* row  47 */  0.07859949f,  0.12790664f,  0.08472094f, -0.14176032f,  0.11329646f, -0.05156839f, -0.03526438f,  0.11017197f, -0.10186667f,  0.12043926f, -0.01931508f,  0.02379297f, -0.01094731f,  0.07810970f,  0.01019699f,  0.05075350f,  0.07415305f, -0.13911600f,  0.00915509f, -0.19360620f, -0.08946767f, -0.11998624f, -0.11378527f, -0.01382191f, -0.15066150f,  0.11253416f, -0.05054279f, -0.08404608f, -0.04723654f,  0.03692166f,  0.07228404f, -0.07495347f,
    /* row  48 */  0.00619789f, -0.22857857f,  0.14416422f, -0.06869546f, -0.13689697f, -0.29260337f, -0.00021311f,  0.00005717f, -0.02340152f, -0.06866382f,  0.03547712f,  0.16115870f, -0.09966737f,  0.18765652f,  0.18602334f, -0.06142082f,  0.25234348f, -0.09010552f,  0.07874200f,  0.03450440f,  0.10338177f, -0.04370544f, -0.02927786f, -0.15846594f, -0.05652800f,  0.08955514f,  0.04681247f,  0.15913028f, -0.08843470f,  0.14694722f, -0.12726027f,  0.06670290f,
    /* row  49 */  0.14491186f,  0.14035365f,  0.18068953f,  0.12104555f, -0.10571895f,  0.03838587f,  0.05413726f, -0.12024809f, -0.08967586f, -0.18210629f, -0.07620228f,  0.02344849f, -0.20415837f,  0.24936023f, -0.12544096f, -0.16376029f, -0.14607458f, -0.27103251f, -0.04887858f,  0.09268675f, -0.22132415f, -0.13509022f,  0.11505219f,  0.15074335f, -0.11274349f,  0.08445063f, -0.08315190f, -0.04151156f,  0.09738483f, -0.20322537f,  0.07220837f,  0.07387560f,
    /* row  50 */ -0.20066804f,  0.00329285f,  0.08542550f, -0.07325651f,  0.05383976f, -0.03379744f,  0.05706101f,  0.01019270f, -0.19451781f,  0.08334582f,  0.15470284f, -0.02361564f,  0.00343298f, -0.17576985f,  0.21775150f, -0.14213245f,  0.06777704f, -0.10464280f, -0.13094719f, -0.13907945f,  0.08264140f,  0.18083861f,  0.13854486f,  0.05492331f, -0.00203776f, -0.07398465f,  0.17045917f,  0.14510046f, -0.19858345f,  0.07991901f, -0.16964777f, -0.00245588f,
    /* row  51 */ -0.01840499f,  0.02795367f,  0.08646948f,  0.00926377f, -0.14134845f, -0.21834844f, -0.00276483f,  0.13845125f, -0.03439076f, -0.01864984f,  0.18606585f,  0.07331991f, -0.16571692f,  0.15345216f, -0.02933080f, -0.23186123f, -0.04091568f, -0.06756155f, -0.19491228f, -0.07326838f, -0.09983648f,  0.05405608f,  0.24687582f,  0.15908277f, -0.01207100f, -0.21955776f,  0.06245102f, -0.11835448f, -0.25009868f, -0.01762425f,  0.04953245f, -0.01556946f,
    /* row  52 */ -0.01767267f,  0.20011534f,  0.02278297f, -0.00540232f,  0.07748140f,  0.05821216f,  0.05576905f,  0.16462320f, -0.01910477f,  0.12138052f, -0.01772137f,  0.09666556f,  0.20096380f, -0.27707401f,  0.13535312f,  0.11555482f,  0.04891659f, -0.20107044f,  0.14160119f,  0.09761766f,  0.07817822f,  0.08754840f,  0.07505430f, -0.00714446f,  0.02167075f, -0.13360745f,  0.00085039f, -0.07020951f,  0.16761257f, -0.14248435f, -0.09347488f,  0.01684604f,
    /* row  53 */ -0.20323332f, -0.00612788f,  0.09633525f,  0.22870989f, -0.06709385f,  0.02078239f,  0.07754267f, -0.15314907f, -0.00781289f,  0.18480979f,  0.04962797f,  0.21642113f, -0.13318475f,  0.16086441f, -0.09722181f,  0.07224628f,  0.04033255f,  0.05592425f,  0.07456607f, -0.04749573f, -0.17203130f, -0.08027120f,  0.09834898f, -0.08284628f, -0.21517599f, -0.05202354f,  0.08490653f, -0.05609214f, -0.06452427f,  0.15292940f, -0.06452526f,  0.15031591f,
    /* row  54 */  0.01452745f,  0.12282366f, -0.17823164f,  0.11243630f,  0.03115181f,  0.15938786f,  0.13140735f,  0.07901271f,  0.09856211f,  0.07436447f,  0.03827466f, -0.16672181f,  0.10609794f, -0.00758938f,  0.00773631f,  0.12877807f,  0.00652006f, -0.24193025f,  0.08546302f, -0.15556034f, -0.13012165f,  0.11697402f, -0.09192429f,  0.21737218f, -0.15343091f,  0.08301163f,  0.02315695f,  0.08264267f,  0.00645071f, -0.16137449f, -0.08629863f, -0.21284723f,
    /* row  55 */ -0.10545794f,  0.07894329f, -0.06079747f,  0.22071925f, -0.16040535f, -0.16526188f, -0.22742550f,  0.12158959f, -0.02023926f,  0.12373462f, -0.04946908f,  0.05401329f,  0.07457066f, -0.18648581f, -0.03910746f,  0.07129762f,  0.19394606f,  0.05028952f, -0.23586319f, -0.01195715f, -0.02104880f, -0.11562798f, -0.07210180f,  0.11015037f,  0.00462228f, -0.18087402f,  0.19663551f, -0.11321305f,  0.08470694f, -0.12711608f, -0.02339244f, -0.13804670f,
    /* row  56 */  0.05677506f, -0.22190966f,  0.04606099f, -0.12006570f,  0.11191624f, -0.02907137f, -0.09635065f,  0.06624305f,  0.11621849f,  0.12857671f, -0.04012602f, -0.06889657f, -0.15542379f, -0.15199639f, -0.09766826f, -0.04254733f, -0.11736145f, -0.14481795f,  0.01826314f, -0.08705215f,  0.03276623f,  0.02747900f, -0.04173271f,  0.00338727f,  0.09128730f,  0.07037547f,  0.07397031f,  0.17520705f, -0.11388900f,  0.09651989f, -0.19276202f,  0.14510715f,
    /* row  57 */  0.12257870f,  0.05502671f,  0.13182248f,  0.10747648f,  0.07679630f, -0.12981521f, -0.14755520f,  0.15481205f, -0.32782093f,  0.01513268f,  0.18170996f,  0.05061721f, -0.14967445f,  0.18267350f, -0.04360340f, -0.02704104f, -0.04732465f, -0.20960224f, -0.15729761f,  0.15311521f, -0.07510582f, -0.07462025f,  0.08678030f,  0.23090573f, -0.04527052f, -0.08916651f, -0.03349450f,  0.08905075f,  0.05329635f, -0.30522749f,  0.00322382f, -0.02999048f,
    /* row  58 */ -0.04712429f, -0.10905627f,  0.12374956f,  0.22780485f,  0.00318578f, -0.12339019f, -0.21554640f, -0.21301273f, -0.26927361f,  0.19658948f, -0.02085496f,  0.05283787f,  0.02785313f, -0.05599416f, -0.08742712f, -0.17485817f,  0.08557750f, -0.11666835f,  0.04703343f, -0.00058845f, -0.00653831f,  0.12755555f,  0.21383104f, -0.15527141f,  0.09468637f,  0.01638861f,  0.05916516f, -0.05581081f,  0.02921244f,  0.01537910f, -0.25514299f,  0.05675592f,
    /* row  59 */ -0.18299899f,  0.01026033f, -0.09312180f,  0.10918133f, -0.12401580f, -0.13187909f, -0.16101003f, -0.16100234f,  0.00200711f,  0.15239465f, -0.04915247f, -0.11962955f, -0.09036444f, -0.09237314f, -0.04938761f, -0.08558229f,  0.10965576f,  0.19839025f,  0.10998698f, -0.19119531f,  0.06802368f,  0.13873997f,  0.10638256f, -0.21835688f, -0.10278147f,  0.04252824f,  0.21412003f, -0.13641430f,  0.00962886f,  0.08202597f, -0.20779139f,  0.10926276f,
    /* row  60 */  0.20272328f, -0.08700474f, -0.13881385f,  0.12271731f,  0.06696851f, -0.10206210f, -0.13640983f, -0.01539005f, -0.18592323f, -0.10570811f,  0.12976782f,  0.01948828f,  0.01746946f, -0.09761698f,  0.11426508f,  0.18269949f, -0.14836740f, -0.12835278f,  0.05770330f, -0.10622485f, -0.00735150f,  0.03935936f,  0.03853640f,  0.10773120f, -0.00261564f,  0.03609716f,  0.07932477f,  0.04962331f, -0.18756308f, -0.17909497f,  0.01228304f, -0.12295146f,
    /* row  61 */  0.09832062f,  0.05629286f, -0.18086939f, -0.13906358f, -0.05848379f,  0.19331411f,  0.02298780f, -0.04260000f, -0.10625194f,  0.07137994f, -0.19785410f, -0.20588617f,  0.06386270f, -0.10818343f, -0.21569145f, -0.14386834f,  0.09355744f, -0.19250084f,  0.11092509f, -0.06548154f,  0.07857628f, -0.00624698f, -0.13724014f,  0.10711998f,  0.05326230f,  0.05933628f,  0.00165024f,  0.15758988f, -0.01004721f,  0.06396536f, -0.16247609f,  0.01774621f,
    /* row  62 */  0.05264793f, -0.05334478f,  0.01065804f, -0.05980569f, -0.18696621f,  0.07130070f,  0.02306420f, -0.00850656f, -0.07332712f,  0.15328671f, -0.08210786f, -0.02073343f,  0.13095360f, -0.02444595f, -0.02714532f, -0.20030102f, -0.00568181f,  0.11491705f,  0.10917842f, -0.14651200f,  0.02510198f, -0.06361704f,  0.09848145f, -0.00261410f, -0.12870336f, -0.01875161f, -0.08698233f,  0.04381108f,  0.09643079f,  0.05879344f, -0.03611410f,  0.09256183f,
    /* row  63 */ -0.17178929f, -0.12484102f,  0.18937311f,  0.03975324f, -0.16645224f,  0.03490236f, -0.07249068f, -0.04834398f, -0.27484339f, -0.06738270f, -0.02766164f, -0.14147651f, -0.15579773f,  0.26342449f, -0.12182324f, -0.27684107f,  0.11269069f, -0.23134530f,  0.01804199f, -0.29896766f, -0.14988203f, -0.03301217f,  0.16796559f, -0.04572026f, -0.22176938f, -0.18758787f, -0.09106787f,  0.02925565f, -0.10737268f, -0.23568855f,  0.07083646f,  0.10219658f,
    /* row  64 */  0.07704452f,  0.16493554f, -0.18145014f,  0.09764139f,  0.05550487f, -0.11264551f,  0.05545417f,  0.15931180f,  0.00562402f,  0.05748110f, -0.10449766f, -0.06795870f,  0.01487754f, -0.14266263f,  0.14085239f,  0.04809450f,  0.10326712f,  0.00989971f, -0.04119686f,  0.00120700f,  0.15050846f, -0.11257860f,  0.13099760f, -0.01530746f,  0.16691190f, -0.04552302f, -0.10227172f, -0.14574018f, -0.11320561f,  0.13427091f,  0.19017723f, -0.03845700f,
    /* row  65 */  0.13505009f,  0.01041802f,  0.02138804f, -0.07038489f,  0.00639738f,  0.12518245f, -0.08580109f,  0.09216144f,  0.25295353f, -0.16779479f,  0.00839299f, -0.09268451f,  0.20697656f,  0.00973063f,  0.09172870f,  0.18848889f, -0.19411384f,  0.04976086f,  0.06613063f,  0.01184703f, -0.09103630f, -0.16433984f, -0.04385829f,  0.15146510f, -0.16005997f,  0.22608016f,  0.03882641f, -0.22457629f,  0.17547894f,  0.03893978f,  0.17763266f,  0.01393368f,
    /* row  66 */  0.00344494f,  0.04259935f, -0.02010318f,  0.16696538f, -0.11044707f, -0.04996503f,  0.06873254f, -0.02339990f, -0.10271502f, -0.03183505f,  0.13872695f,  0.09001280f, -0.18399423f,  0.01543602f,  0.00658318f,  0.12276872f,  0.02919297f, -0.03111563f, -0.19294710f,  0.12283379f,  0.04677219f,  0.21684100f, -0.11578771f, -0.08312432f, -0.00681532f,  0.06191863f, -0.13139163f,  0.04729906f, -0.05755695f, -0.12406112f,  0.12509476f,  0.14797650f,
    /* row  67 */ -0.09689686f, -0.19965227f,  0.03451696f, -0.03161830f,  0.01487182f, -0.01989462f, -0.15119678f, -0.04916608f,  0.00220305f,  0.01958166f, -0.08979209f,  0.22411270f, -0.19248690f, -0.01160100f,  0.16235681f,  0.08691798f,  0.18815106f, -0.19230208f,  0.09785410f, -0.05201018f, -0.20550302f, -0.07329810f, -0.13030596f, -0.01577715f,  0.01547909f, -0.18614982f,  0.17977452f,  0.02276967f, -0.04388655f,  0.07708563f, -0.10290906f,  0.08380344f,
    /* row  68 */ -0.14108014f, -0.16516678f,  0.07512901f, -0.06442630f,  0.13658141f, -0.17155567f,  0.05658005f, -0.19313708f,  0.25249326f,  0.02561071f, -0.03678792f, -0.13999213f,  0.01991198f, -0.02065587f,  0.17015694f, -0.02509586f, -0.05517039f,  0.01768553f,  0.11243839f,  0.09794162f,  0.01539288f,  0.12936270f, -0.16186997f, -0.16386379f,  0.01735966f,  0.01996398f, -0.12710901f,  0.03598798f, -0.13650030f,  0.15220904f, -0.04215185f,  0.04137268f,
    /* row  69 */  0.09226676f,  0.04011225f, -0.12190093f,  0.06980925f, -0.13672732f,  0.16989249f, -0.05224660f, -0.09286645f,  0.07260131f, -0.08144484f, -0.07689258f,  0.08198877f,  0.02290848f, -0.17158912f, -0.10224375f,  0.08451790f, -0.15542988f, -0.12712738f, -0.12298817f,  0.05576834f,  0.14875698f, -0.14014353f, -0.19543308f, -0.02489803f,  0.15076925f, -0.10513292f, -0.17932472f, -0.08835948f,  0.20699440f, -0.04011476f,  0.20596695f,  0.03365649f,
    /* row  70 */ -0.14095750f,  0.16382350f, -0.07080136f, -0.08415494f, -0.04680383f, -0.07103035f,  0.12066011f,  0.04892129f, -0.11574090f, -0.13552755f, -0.16497427f, -0.21415396f, -0.14057082f, -0.14726794f, -0.12615672f, -0.15458673f, -0.10553752f, -0.20543285f, -0.02133810f, -0.04696437f, -0.05925502f,  0.06199440f,  0.16512991f,  0.24256322f, -0.03814515f,  0.01972673f, -0.20102143f, -0.10401652f,  0.04999906f, -0.13100228f,  0.04523765f, -0.01768729f,
    /* row  71 */  0.03263239f,  0.00935265f, -0.06165264f, -0.15027191f, -0.11100102f,  0.19584860f,  0.14904393f,  0.04854773f,  0.09201883f, -0.13478296f, -0.23949912f, -0.15264645f,  0.03746154f, -0.18664710f, -0.07446243f, -0.11469465f, -0.09182094f, -0.01295898f, -0.15096083f, -0.01263302f,  0.14856277f, -0.00605494f,  0.02954610f,  0.15081842f, -0.03196730f,  0.04662437f, -0.03066316f, -0.22455522f, -0.04776929f, -0.07922532f,  0.07237293f,  0.00136800f,
    /* row  72 */ -0.07022887f, -0.10341794f,  0.13662246f, -0.07851297f,  0.08308690f, -0.15230526f, -0.06181460f, -0.05311998f,  0.16884124f,  0.16680469f,  0.12255838f,  0.07977087f,  0.05930476f,  0.18863609f,  0.18925315f,  0.02095101f,  0.05649287f,  0.10400786f, -0.12393671f, -0.07831062f,  0.13336305f,  0.18730718f, -0.03232920f, -0.21787491f, -0.16442879f,  0.14611608f,  0.19521692f,  0.04413833f, -0.14295089f, -0.02808301f, -0.09757432f,  0.21637654f,
    /* row  73 */ -0.21526223f,  0.01830686f, -0.13655862f, -0.00863217f,  0.06019221f, -0.19024210f,  0.02574864f, -0.15303314f,  0.12120054f,  0.03056455f,  0.18891515f,  0.08784694f,  0.10445297f,  0.03183405f,  0.02248472f,  0.05995750f,  0.10682810f, -0.02220522f, -0.08460522f, -0.09382544f,  0.04770109f, -0.09410258f, -0.12676445f, -0.16762799f, -0.09900334f, -0.00706944f, -0.03070123f,  0.04368798f,  0.14823335f,  0.17226233f, -0.14604576f,  0.03672930f,
    /* row  74 */ -0.05316976f, -0.15220924f,  0.13222739f, -0.01172700f,  0.04364503f, -0.07560658f, -0.10180970f,  0.04540486f, -0.29494330f, -0.05936804f,  0.09420296f,  0.06002790f,  0.14903186f,  0.08555338f,  0.02454123f, -0.17593496f, -0.07960425f, -0.13206540f, -0.10956633f, -0.09204595f,  0.02782290f, -0.08221559f, -0.04279102f,  0.07636889f, -0.09598140f,  0.02308317f, -0.10020766f, -0.02100579f, -0.19521612f, -0.11087675f, -0.00576316f, -0.17549938f,
    /* row  75 */ -0.07435049f,  0.07781565f, -0.04715359f,  0.23920557f, -0.16998813f, -0.01939809f, -0.14660162f, -0.00326272f, -0.16210806f, -0.05123414f,  0.15228729f,  0.12153371f,  0.04138070f, -0.11530869f,  0.22288220f, -0.11666124f,  0.18483581f, -0.07211269f, -0.17052975f,  0.17996602f, -0.12466660f, -0.03654726f, -0.02458853f, -0.11284545f,  0.04389953f,  0.03115839f, -0.01395172f,  0.08068178f, -0.23421589f, -0.00888558f,  0.10863321f,  0.08182026f,
    /* row  76 */  0.20106669f,  0.05396259f,  0.00206672f, -0.14972816f,  0.16615057f,  0.00584017f,  0.00917425f,  0.00503865f, -0.05213670f,  0.11000610f,  0.12009162f, -0.22242565f,  0.15485488f, -0.15491311f,  0.18701045f,  0.03147130f,  0.03548657f,  0.02505705f,  0.01215714f,  0.12682882f, -0.00119833f,  0.08261816f,  0.08260521f, -0.00100151f,  0.11136878f, -0.11663640f, -0.03851273f,  0.02722926f,  0.04009265f,  0.13277225f,  0.17284387f, -0.09988291f,
    /* row  77 */ -0.01397029f,  0.03251212f, -0.10194550f,  0.13296516f, -0.12658499f, -0.09866532f, -0.01651445f,  0.06291139f, -0.48420346f,  0.10180419f, -0.08402357f,  0.12728995f, -0.09619048f, -0.02964170f, -0.04170622f,  0.05085669f,  0.14839913f,  0.13870788f, -0.13629051f,  0.02040287f,  0.04861744f, -0.01142961f,  0.05704712f,  0.19881330f,  0.00577301f,  0.05132110f,  0.23254612f,  0.04221016f,  0.07760004f, -0.13817543f, -0.14569943f,  0.05248283f,
    /* row  78 */  0.00145515f,  0.08818156f, -0.09886921f, -0.11220720f,  0.03057785f,  0.01618731f,  0.12228130f,  0.13919310f,  0.05818686f, -0.11407254f,  0.01920901f,  0.06966495f, -0.12860765f,  0.10695479f,  0.03851468f,  0.12693161f, -0.12638690f, -0.02932428f, -0.10879733f,  0.09432261f,  0.12345736f,  0.17569338f, -0.13804619f,  0.15667464f, -0.00983802f,  0.04942341f, -0.15084924f,  0.00143322f, -0.04140918f, -0.12567213f, -0.00999109f, -0.14247739f,
    /* row  79 */  0.02332199f,  0.11727075f,  0.07711332f, -0.03099357f, -0.15100338f, -0.01546710f,  0.12702583f,  0.00108385f, -0.04243199f,  0.10298071f,  0.20259719f, -0.00154977f, -0.06883255f, -0.09913415f, -0.04624797f,  0.03417479f, -0.00436721f, -0.05966413f, -0.06193295f, -0.00437386f, -0.14179882f,  0.05788610f, -0.06415039f,  0.11568721f, -0.16003530f,  0.09693693f, -0.15989506f,  0.01157727f, -0.01487323f,  0.12419923f, -0.04872975f,  0.03829008f,
    /* row  80 */  0.01411129f, -0.24140497f, -0.03955360f,  0.04291951f, -0.07243512f,  0.06108735f, -0.14255854f, -0.15144938f, -0.15515263f, -0.02012293f,  0.12332473f,  0.19164397f, -0.14516725f, -0.09844985f,  0.17023014f,  0.07359530f, -0.00229829f,  0.01967574f, -0.02844010f, -0.09212410f, -0.12115923f, -0.01747512f, -0.09202740f, -0.07707225f,  0.07753341f, -0.17432660f,  0.18089236f, -0.07506884f,  0.08550631f, -0.19840862f, -0.13247652f,  0.02049174f,
    /* row  81 */ -0.20513515f, -0.18092550f,  0.19598140f,  0.18403889f, -0.07526036f, -0.13971083f, -0.00071264f, -0.12238305f, -0.16717082f,  0.15239775f,  0.19931228f,  0.25751683f,  0.09204344f, -0.18849799f,  0.21172431f,  0.10360652f,  0.05187719f, -0.08624677f, -0.10549503f, -0.03696420f,  0.11686160f,  0.23505102f,  0.12721224f, -0.12961514f,  0.12731007f, -0.15291804f,  0.06395692f, -0.06033473f, -0.02750223f, -0.11695947f,  0.00763980f, -0.17698324f,
    /* row  82 */ -0.00890219f,  0.19897135f, -0.11756054f, -0.14455676f,  0.03918352f,  0.02626930f,  0.20359054f, -0.07049225f,  0.08942615f,  0.02095142f,  0.09565544f, -0.17865327f,  0.15429787f, -0.17066830f, -0.16551241f, -0.08804455f,  0.06881490f,  0.06904992f,  0.13478568f,  0.08915899f, -0.01321658f,  0.06989969f,  0.12616284f,  0.15138239f, -0.12967955f, -0.08462368f, -0.14886248f, -0.16260454f, -0.06063410f, -0.10262918f,  0.02023488f, -0.15093623f,
    /* row  83 */ -0.06841625f,  0.15807727f,  0.04648926f,  0.09834425f,  0.13906664f, -0.05772979f,  0.08600366f,  0.05053331f,  0.23324020f, -0.02978987f, -0.13205501f, -0.13946068f,  0.11247449f, -0.19376831f, -0.24455208f, -0.09358220f, -0.08119034f, -0.12200636f,  0.13186014f, -0.10093544f,  0.12194745f, -0.17263259f, -0.01712827f, -0.03925294f, -0.00683378f,  0.21066897f, -0.06105933f, -0.07938368f,  0.05795950f,  0.03245514f,  0.13855289f,  0.11794056f,
    /* row  84 */ -0.08938914f, -0.04267955f,  0.24964976f,  0.08622499f, -0.20467678f, -0.04536326f, -0.15787041f,  0.08152311f,  0.21847644f,  0.17645116f,  0.10958427f,  0.19002126f, -0.06606761f, -0.07133928f,  0.03157903f,  0.06838089f, -0.09268557f,  0.11877405f,  0.05209119f,  0.01023766f, -0.05811493f, -0.03037352f,  0.01369482f, -0.16234452f,  0.07024983f, -0.11557416f,  0.04896219f,  0.07694571f, -0.21000293f,  0.01474582f,  0.05781653f, -0.06715321f,
    /* row  85 */  0.07681375f,  0.12257305f,  0.06801295f,  0.01373098f, -0.08017486f,  0.07906978f,  0.01531067f,  0.01989429f, -0.26148272f, -0.08154111f, -0.06714068f,  0.12669782f, -0.08727491f,  0.01862476f, -0.00570146f,  0.03896867f,  0.03585875f,  0.14629325f, -0.00486191f, -0.03863392f, -0.03538099f,  0.09241176f, -0.04799313f, -0.06031226f,  0.00616093f, -0.00824998f,  0.08105516f, -0.05867162f, -0.14050390f, -0.07689538f, -0.24709591f, -0.02153410f,
    /* row  86 */  0.02551261f,  0.07465424f,  0.15978512f, -0.15252838f, -0.06570665f,  0.14660005f, -0.18131670f, -0.15071088f,  0.10258240f,  0.18516397f,  0.13900162f,  0.16929582f,  0.09878489f, -0.02868900f, -0.17001997f,  0.01961423f, -0.01505491f,  0.17471921f,  0.15634589f,  0.07374124f,  0.05057759f, -0.06718983f,  0.10384014f, -0.04695781f,  0.06722552f, -0.03180314f, -0.04016372f,  0.12273587f, -0.02975623f,  0.07522602f, -0.00837358f, -0.15588169f,
    /* row  87 */  0.03812264f,  0.07286425f, -0.01465431f, -0.00559541f, -0.01536787f, -0.11138435f, -0.09506417f, -0.13896680f,  0.10986950f, -0.16005699f, -0.22713067f, -0.22668596f, -0.04033320f, -0.13636567f, -0.15484034f,  0.10385881f, -0.13551421f, -0.06852398f, -0.15054330f, -0.12160923f, -0.04714960f, -0.04634869f,  0.08194153f,  0.02621945f, -0.00815388f,  0.15996005f, -0.21279256f,  0.03534389f,  0.06835739f, -0.09624412f, -0.00431350f, -0.19460185f,
    /* row  88 */  0.06328671f, -0.06537709f, -0.01727566f, -0.05470372f,  0.00403037f,  0.15562408f,  0.06191001f,  0.14388192f,  0.21298541f, -0.03170899f,  0.08884891f, -0.19639099f, -0.07461095f,  0.06654246f, -0.14586686f, -0.15112188f, -0.01565540f,  0.04516052f,  0.14248267f,  0.15342943f,  0.10714608f, -0.10039654f,  0.16692261f,  0.10092317f,  0.08609038f, -0.08259954f, -0.11780329f, -0.03273837f,  0.18830068f,  0.05328239f,  0.01724724f, -0.20437597f,
    /* row  89 */  0.10408682f, -0.05463271f, -0.02428315f,  0.04850254f, -0.14679176f,  0.10629297f, -0.03346710f,  0.09390903f,  0.17550537f,  0.02950333f,  0.01260746f, -0.17873500f, -0.10764655f, -0.11405911f, -0.15170068f,  0.04439885f,  0.01845483f,  0.17429200f, -0.13389792f, -0.23564775f,  0.03603511f,  0.00347992f, -0.00091385f, -0.01906739f,  0.07040239f,  0.01063817f,  0.15444107f, -0.05028208f, -0.11032888f, -0.00189390f,  0.11025791f,  0.01715769f,
    /* row  90 */  0.06056228f,  0.01840724f, -0.10391016f,  0.15666708f, -0.03982279f, -0.00100199f, -0.22774298f, -0.05354083f, -0.26867369f, -0.12207372f,  0.01017402f, -0.09799968f, -0.18479919f, -0.05619219f,  0.06061102f,  0.00964210f,  0.14341100f,  0.11673252f, -0.12463619f,  0.15751426f, -0.09337783f,  0.05851368f, -0.02912051f,  0.03881462f,  0.00502776f, -0.17183313f,  0.23241813f, -0.09831072f, -0.19204447f, -0.04482226f,  0.02041520f,  0.00806229f,
    /* row  91 */  0.12345262f, -0.10960199f, -0.07579177f,  0.19701098f, -0.17512369f, -0.14991167f, -0.12403870f, -0.07338026f, -0.20387863f, -0.13693801f,  0.02037030f, -0.08891813f, -0.04112129f, -0.03752284f,  0.07995047f,  0.09551711f, -0.14126028f, -0.17956991f,  0.07205788f, -0.13845539f,  0.13734640f, -0.08130740f,  0.08297746f, -0.03538973f,  0.10619277f, -0.16104540f,  0.13744859f,  0.03570578f,  0.06400846f,  0.11743353f, -0.09233011f,  0.05542809f,
    /* row  92 */  0.17300805f,  0.09614261f, -0.10091521f,  0.09067533f, -0.04116489f, -0.11617461f,  0.12492869f,  0.11544937f, -0.04852049f,  0.12776814f,  0.06937240f, -0.15317295f,  0.14581305f,  0.10882351f,  0.05359017f,  0.11062905f, -0.06738164f, -0.12502877f,  0.09729306f,  0.08881336f,  0.03818287f, -0.12303757f, -0.04506306f,  0.05132554f, -0.14840806f, -0.08740294f, -0.02386356f,  0.06783989f,  0.04481590f, -0.09065374f, -0.02806181f,  0.02635638f,
    /* row  93 */ -0.22070152f, -0.29832500f,  0.17808439f, -0.02801483f, -0.21758617f,  0.00093101f, -0.05238259f, -0.25409916f, -0.08350336f,  0.12970653f,  0.14400691f,  0.36746946f, -0.10458557f, -0.08416915f,  0.14671238f, -0.17169099f, -0.03341026f,  0.11819419f, -0.25870752f,  0.00769267f,  0.16555068f,  0.02042976f, -0.08997430f, -0.04940869f, -0.02002439f, -0.05465240f,  0.02451925f,  0.31926286f, -0.05179266f,  0.14050192f, -0.15292870f, -0.03570270f,
    /* row  94 */ -0.03645881f, -0.07812500f, -0.11324139f,  0.12211929f, -0.05157474f,  0.03432095f,  0.08382765f,  0.14500952f,  0.20010617f, -0.01202577f, -0.01690012f, -0.19398989f,  0.04866380f,  0.04034670f, -0.01642857f, -0.06728797f, -0.18689072f, -0.07340135f,  0.07290942f,  0.01040413f,  0.02478998f, -0.19790886f, -0.16284761f, -0.12055096f,  0.14858602f,  0.17355192f, -0.02979095f, -0.09802663f,  0.17427106f,  0.06214422f,  0.18326849f, -0.06583890f,
    /* row  95 */ -0.06166270f, -0.01989268f,  0.19802341f,  0.03741669f, -0.09982291f, -0.20404212f,  0.01932386f, -0.20361443f, -0.01860472f, -0.10461092f,  0.18312497f,  0.05833561f, -0.04413122f,  0.03209681f,  0.04201618f,  0.13100940f,  0.10554004f,  0.03078878f, -0.06715662f, -0.20769852f,  0.00316556f,  0.17223084f, -0.09122770f, -0.22584303f, -0.01768867f, -0.02349205f, -0.03680069f,  0.13526504f, -0.04605516f,  0.08220129f, -0.22117487f, -0.02026247f,
    /* row  96 */  0.02528960f, -0.20063481f,  0.07432755f,  0.14628348f, -0.03070373f, -0.12576075f,  0.00049974f, -0.10715764f, -0.06476397f,  0.03875399f,  0.13960640f,  0.11577827f, -0.03703817f,  0.06840695f,  0.20576862f, -0.16964473f,  0.11156140f,  0.18447661f, -0.20341334f, -0.01478800f, -0.01142119f, -0.03709820f,  0.00721911f, -0.14922850f, -0.02430713f, -0.01950019f,  0.00816088f,  0.18599197f, -0.16137989f,  0.17021382f,  0.00362511f,  0.05315809f,
    /* row  97 */ -0.10144068f, -0.11970646f,  0.20691271f,  0.00521963f,  0.02311261f, -0.17850627f, -0.17952339f, -0.08172424f, -0.11811619f,  0.00204258f,  0.24581280f,  0.26651102f, -0.27370986f,  0.04481919f,  0.21646494f,  0.06937949f, -0.06027290f,  0.11472562f, -0.02700434f,  0.08562648f, -0.19289376f,  0.02322886f, -0.07236624f, -0.06538460f, -0.01632874f, -0.23101343f,  0.15118319f,  0.20313609f, -0.06811634f,  0.05807091f, -0.09219042f, -0.09897530f,
    /* row  98 */  0.07142466f, -0.15901744f, -0.02154712f, -0.00227907f, -0.11730793f, -0.16086949f,  0.06996030f, -0.20425698f,  0.05444202f,  0.20967235f,  0.21055216f,  0.23362185f,  0.09058407f,  0.00713373f, -0.00954388f, -0.00753363f, -0.05291428f,  0.06946560f,  0.00937319f,  0.06560951f,  0.12956326f,  0.03777095f,  0.16379724f, -0.00224673f, -0.03640559f,  0.01464787f, -0.04896161f,  0.09663643f, -0.19965616f,  0.06423853f, -0.26105067f,  0.09767600f,
    /* row  99 */  0.00099001f,  0.06510162f, -0.12672789f,  0.18666549f,  0.06312153f,  0.09899351f, -0.21259983f, -0.01870460f, -0.26872638f, -0.14244877f,  0.01598858f,  0.24367596f, -0.01878299f, -0.12427916f,  0.19718102f,  0.02601651f,  0.18647380f, -0.16519834f, -0.18657912f, -0.01187627f,  0.02837370f, -0.03485170f,  0.11593658f, -0.11381696f, -0.14714441f, -0.11384264f,  0.18710890f,  0.05297406f,  0.07409675f,  0.02104196f, -0.00603093f,  0.11990343f,
    /* row 100 */ -0.08429965f,  0.09804916f,  0.01535943f, -0.14625330f, -0.10737579f,  0.00585758f,  0.10400904f, -0.08846755f, -0.14840876f,  0.08607846f,  0.02528007f,  0.11463524f,  0.02637160f,  0.11918049f,  0.00556980f, -0.10654487f,  0.01450931f,  0.03217849f, -0.16361323f, -0.05342060f, -0.25977099f,  0.11112588f, -0.02760226f,  0.03646326f,  0.07233734f,  0.01558445f, -0.07498215f, -0.08146068f, -0.11466684f, -0.16860603f, -0.06508848f,  0.12495769f,
    /* row 101 */ -0.20437117f,  0.07342740f, -0.06383136f,  0.22516948f,  0.10069750f,  0.05971463f,  0.02286628f,  0.03758537f, -0.21935056f, -0.07265761f,  0.09988897f,  0.18389151f, -0.09085188f,  0.10975631f,  0.06204015f,  0.07535387f, -0.03741752f,  0.00573801f,  0.05817441f,  0.06073599f, -0.11352518f,  0.06867599f,  0.07319815f, -0.01921050f, -0.24697432f,  0.10831203f, -0.06422000f,  0.02610671f, -0.19360508f, -0.12580758f, -0.15446310f,  0.11526769f,
    /* row 102 */ -0.16116746f,  0.05225047f,  0.01957539f,  0.20477876f,  0.05534213f, -0.00498063f,  0.02231607f, -0.05504680f, -0.05100248f, -0.03945511f,  0.15132163f, -0.02532124f, -0.24009605f,  0.19562817f,  0.18648310f,  0.09502425f,  0.22455505f, -0.04566862f, -0.02180834f,  0.03501133f, -0.04286288f, -0.00222377f, -0.01594520f, -0.04633385f,  0.09025977f,  0.00862660f,  0.17172399f, -0.07434460f,  0.02905231f, -0.04744351f, -0.18782134f, -0.09004944f,
    /* row 103 */ -0.03782237f,  0.01268604f,  0.20412867f,  0.10255967f,  0.02139470f,  0.08966299f, -0.12938102f, -0.03646526f, -0.01409622f, -0.03332434f, -0.04577487f, -0.12523951f, -0.07372171f, -0.04345534f,  0.17051171f,  0.13576041f,  0.12715305f, -0.01875065f, -0.06449918f,  0.01181519f,  0.07979685f,  0.15554017f,  0.07507566f, -0.10944383f, -0.11193290f, -0.04294033f,  0.13202578f,  0.14726958f,  0.13377035f, -0.06774450f, -0.16262172f,  0.05300042f,
    /* row 104 */ -0.24672598f, -0.32986632f,  0.09830339f,  0.10869819f,  0.07203677f, -0.06081181f, -0.18928286f, -0.11283541f,  0.14056920f,  0.13723221f,  0.11201195f,  0.00774533f, -0.14239307f,  0.00636131f,  0.02094162f, -0.25050229f,  0.21254566f,  0.01869826f, -0.07852469f, -0.12486667f, -0.03998088f,  0.28936121f,  0.24774899f, -0.15478538f, -0.03442162f, -0.20902598f,  0.17305003f,  0.22505976f, -0.15726361f, -0.04842944f, -0.11032315f,  0.06848572f,
    /* row 105 */ -0.16651711f,  0.03478302f, -0.05209418f,  0.06636167f, -0.00397720f,  0.03960899f, -0.07163682f,  0.01618640f, -0.07744561f, -0.13832073f,  0.22945841f,  0.02905272f, -0.02783196f,  0.04693922f,  0.01963614f, -0.12704322f, -0.10211378f, -0.06511306f,  0.04015794f,  0.18581624f, -0.14013505f,  0.16637434f,  0.09153857f,  0.09894294f,  0.03979583f, -0.24740824f,  0.00193043f,  0.04481871f,  0.05144767f,  0.00088849f, -0.00365690f,  0.06737439f,
    /* row 106 */ -0.15490617f, -0.27223238f,  0.00004561f,  0.08983055f,  0.03859203f, -0.00897872f, -0.04977231f, -0.23729591f, -0.10032319f,  0.20352976f,  0.01142016f,  0.05356587f, -0.01384487f, -0.11796373f,  0.24956988f, -0.27529910f, -0.04332893f,  0.08153005f, -0.29006296f, -0.01316052f, -0.17687765f,  0.05573276f,  0.17844135f, -0.04542282f, -0.14752130f,  0.00661478f,  0.00475383f, -0.01610575f, -0.21881366f, -0.06237106f, -0.01725111f,  0.09637209f,
    /* row 107 */ -0.11027341f, -0.21559127f,  0.19419579f,  0.22143194f, -0.21811502f, -0.18144156f,  0.05739390f,  0.10425261f, -0.09356879f,  0.00293570f,  0.08706630f,  0.11237557f, -0.17423883f, -0.01710607f,  0.26201111f, -0.19925217f, -0.01176802f, -0.07015426f, -0.16370788f,  0.18671535f, -0.20951898f, -0.03503815f,  0.16479307f, -0.10409693f, -0.03867672f, -0.11267280f,  0.04575239f,  0.08589326f, -0.06418265f, -0.16171175f, -0.23833320f, -0.13584404f,
    /* row 108 */ -0.10245232f, -0.12561601f, -0.00704755f,  0.15820889f,  0.16541123f,  0.08704286f,  0.17663576f,  0.02898232f, -0.20135641f, -0.10862724f, -0.01103082f, -0.01842139f,  0.11577699f, -0.02997197f, -0.03840104f, -0.13218023f,  0.02130076f,  0.11156210f,  0.15895800f, -0.08739052f, -0.07267009f,  0.13820305f,  0.11076908f,  0.04485044f, -0.10017125f, -0.10289957f,  0.03254488f, -0.03322846f, -0.10945291f,  0.14400311f, -0.24746294f, -0.00924039f,
    /* row 109 */ -0.10267326f, -0.16156843f,  0.06405488f, -0.06239000f,  0.01022538f, -0.14017238f, -0.03464622f, -0.06097005f,  0.00304288f,  0.18204518f,  0.03680954f,  0.18039316f,  0.01241123f,  0.03715564f,  0.09290548f,  0.05075369f,  0.10618892f,  0.14627959f, -0.01784987f, -0.24507023f,  0.26634732f,  0.14531311f, -0.02044596f, -0.10217739f, -0.03140256f,  0.00463536f,  0.11178932f, -0.02764314f, -0.05698032f,  0.16329329f, -0.25526404f,  0.21699981f,
    /* row 110 */ -0.18694775f, -0.25642237f, -0.05031035f,  0.10678165f,  0.09653175f, -0.19965887f, -0.09357915f,  0.05050738f, -0.18233305f,  0.20974761f,  0.29879916f,  0.19730376f,  0.07113453f,  0.16893576f,  0.16984907f, -0.04399991f, -0.04563797f,  0.06896204f, -0.23680715f,  0.08046912f,  0.03494871f,  0.09442299f,  0.03723204f, -0.15728359f,  0.01381959f, -0.16583398f, -0.00713587f,  0.07116525f, -0.04829770f,  0.16619761f, -0.18159494f,  0.12517616f,
    /* row 111 */ -0.02218840f,  0.06638668f,  0.09055229f,  0.01975058f,  0.03662901f, -0.11563704f, -0.12603733f, -0.02573847f, -0.13067998f, -0.28264043f, -0.23128061f, -0.28832412f, -0.11458648f,  0.15403205f, -0.08878284f, -0.19556278f,  0.01513811f,  0.01072758f,  0.01563615f,  0.19710894f, -0.01896475f,  0.09225370f, -0.01877689f,  0.29169264f,  0.06968130f, -0.07492262f, -0.08597986f, -0.16272709f,  0.14410312f, -0.19399142f,  0.01689415f, -0.00927683f,
    /* row 112 */ -0.19605443f, -0.03037990f,  0.06666609f,  0.26650825f, -0.07246196f,  0.00778878f, -0.10555083f,  0.04926379f, -0.09152692f,  0.09105822f,  0.08054621f,  0.26425073f, -0.21109566f,  0.16890237f,  0.02191461f, -0.06175101f,  0.09564665f,  0.03837995f, -0.06811488f,  0.12998877f,  0.04765598f,  0.17886081f,  0.17675984f,  0.10813800f, -0.05507345f, -0.12717292f, -0.03386189f,  0.09568848f, -0.25550830f, -0.00402651f, -0.29369804f,  0.16655217f,
    /* row 113 */ -0.14744319f,  0.07151344f,  0.27115223f,  0.05695055f,  0.03333860f, -0.01544635f,  0.03463401f, -0.21072423f,  0.01870978f,  0.04826101f,  0.04750523f, -0.11306041f, -0.17255361f,  0.14873748f,  0.08916371f, -0.22307274f,  0.04719612f, -0.06743583f, -0.15042724f,  0.21992140f, -0.02990882f, -0.08889241f,  0.01860874f,  0.11465053f,  0.21734379f, -0.12201681f,  0.19180739f, -0.05812751f, -0.25482476f, -0.07841094f, -0.02487750f,  0.03298077f,
    /* row 114 */  0.10868963f,  0.01790729f,  0.18979675f,  0.04449666f,  0.12608451f, -0.16303758f,  0.08348031f,  0.02822445f, -0.17834572f, -0.06435252f, -0.03797781f,  0.20333710f, -0.14270709f,  0.09005725f,  0.07633959f, -0.18180904f,  0.17989478f, -0.04713382f,  0.06542126f, -0.08945880f,  0.01180684f, -0.09330215f,  0.01851589f, -0.02553861f,  0.11831955f, -0.01933464f,  0.03313010f,  0.19207951f, -0.16214052f, -0.14050256f, -0.14129329f, -0.11891727f,
    /* row 115 */ -0.13763680f, -0.21381785f, -0.09587677f, -0.10949179f, -0.14337459f, -0.04033371f, -0.11088218f, -0.24171211f,  0.07437439f,  0.12541530f,  0.17154357f,  0.01952659f, -0.06092482f,  0.09950195f, -0.07348214f,  0.05517258f,  0.09008400f, -0.13373235f,  0.08702411f,  0.03358138f,  0.00688821f,  0.04985334f,  0.03414518f,  0.21175247f, -0.20174977f, -0.20884182f,  0.18983099f,  0.09360365f,  0.08934907f, -0.12026753f, -0.27299252f, -0.07256214f,
    /* row 116 */  0.04895895f, -0.13509816f, -0.13276038f,  0.07528748f, -0.02153106f, -0.05609965f, -0.08189184f,  0.09418254f,  0.23805423f,  0.04118975f,  0.01897566f,  0.08562191f,  0.06749718f, -0.19151810f, -0.05567209f, -0.10404943f, -0.15559258f, -0.09394798f,  0.15422882f, -0.04666778f, -0.03553603f,  0.01401502f, -0.11415705f, -0.03741812f,  0.18485489f, -0.06459782f, -0.18476930f, -0.06346168f,  0.04881187f, -0.01861760f,  0.16365196f, -0.08504213f,
    /* row 117 */  0.03098634f,  0.15079270f,  0.03511586f, -0.01314770f, -0.24263184f, -0.04686439f, -0.13908215f, -0.12992586f, -0.19591884f,  0.18155091f,  0.04819268f,  0.18909423f,  0.16515164f,  0.03327801f,  0.03644806f, -0.21997261f,  0.05462157f, -0.02579606f, -0.11352924f, -0.03145473f,  0.04502976f,  0.06050799f,  0.15206480f,  0.02357925f, -0.19141202f,  0.06095495f,  0.23479825f,  0.03530448f, -0.22129561f, -0.18819518f, -0.11467264f,  0.13628694f,
    /* row 118 */  0.05495735f,  0.00781606f, -0.03016581f,  0.09368286f,  0.19248624f, -0.10723153f,  0.18780062f, -0.07444926f,  0.10598715f, -0.16824375f,  0.00646272f, -0.02627483f, -0.14148772f,  0.09556652f, -0.01137247f,  0.07397298f,  0.08186661f, -0.00318601f,  0.12133912f,  0.07240737f, -0.04040975f,  0.06319661f, -0.18985023f,  0.05825438f, -0.09353210f, -0.06591430f,  0.06970228f, -0.06162572f,  0.17461348f, -0.20226808f, -0.10716504f, -0.15101787f,
    /* row 119 */  0.03001135f, -0.09594864f,  0.13292150f, -0.09535835f, -0.14462832f, -0.03210484f, -0.15729561f, -0.14025694f,  0.03809949f, -0.00620617f,  0.19753920f, -0.01026607f, -0.21329087f,  0.18616268f,  0.09694513f, -0.01261253f,  0.14561650f,  0.06212475f, -0.02611399f, -0.04653400f, -0.12943251f,  0.09130981f,  0.01377232f, -0.17141624f, -0.04451026f, -0.11448590f,  0.04038443f,  0.22212625f, -0.21461624f,  0.06574439f, -0.23363745f, -0.13709134f,
    /* row 120 */  0.09860858f, -0.03476937f, -0.05990402f,  0.08522485f, -0.10411958f, -0.14851229f, -0.19100407f, -0.11692058f,  0.01670659f, -0.13775429f,  0.25138536f, -0.14350218f, -0.21472411f, -0.03874061f,  0.12868732f, -0.10284127f,  0.11977791f, -0.08230213f, -0.01906275f,  0.06270151f, -0.01110441f, -0.05908337f, -0.02443345f,  0.01219083f,  0.03757036f, -0.03840671f,  0.17142299f,  0.01947204f, -0.23591377f,  0.06965689f, -0.12231547f, -0.08509114f,
    /* row 121 */  0.10859011f, -0.01017918f,  0.09988111f,  0.02334154f, -0.20026645f,  0.01817260f, -0.19374393f,  0.12075806f, -0.07162068f, -0.09859776f, -0.08160914f,  0.04099298f, -0.19089051f,  0.13479759f,  0.05507903f, -0.01858820f,  0.11506262f, -0.18112823f,  0.02551244f,  0.07261236f, -0.24643080f,  0.07363202f,  0.12639792f,  0.01206412f,  0.10174136f, -0.16147748f, -0.09899941f,  0.03427253f,  0.02962449f, -0.22963914f,  0.06658594f, -0.05136279f,
    /* row 122 */ -0.06278310f, -0.09783993f, -0.06010519f,  0.12159687f, -0.13545981f, -0.07327889f, -0.06915738f, -0.13867815f, -0.32386026f,  0.10712064f,  0.28609249f,  0.21972409f, -0.09557968f,  0.00780658f,  0.21747740f, -0.01392517f,  0.02295274f, -0.01305806f, -0.16598575f, -0.03390978f, -0.07393350f,  0.09666659f,  0.18355501f, -0.09860235f, -0.13033608f, -0.02608489f,  0.19555703f,  0.27898803f, -0.04306289f,  0.14105727f, -0.20869486f,  0.10792114f,
    /* row 123 */ -0.20337871f, -0.16204977f, -0.04299933f, -0.04111138f, -0.10174869f, -0.25377643f,  0.00997881f, -0.16902043f, -0.17040515f,  0.10868418f,  0.17145461f,  0.17420885f,  0.08345991f,  0.04059865f,  0.15925980f, -0.07652927f, -0.11437745f,  0.16943137f, -0.10898658f, -0.01839809f,  0.07555583f, -0.02722388f,  0.14253847f,  0.07410185f,  0.02261946f, -0.20475397f,  0.20973054f,  0.23972686f,  0.03263450f, -0.03101177f, -0.00061842f,  0.16292037f,
    /* row 124 */ -0.04634247f,  0.08901267f,  0.03123861f,  0.19669366f, -0.04209009f, -0.10928839f, -0.19393358f, -0.18667808f, -0.26417464f,  0.08286840f,  0.11853357f, -0.12728830f, -0.12774605f, -0.11339148f, -0.08613833f, -0.02355874f,  0.05380839f, -0.17423703f, -0.15197805f, -0.16537945f, -0.24701746f,  0.09971366f,  0.11351673f,  0.09178172f, -0.19682606f,  0.11261462f,  0.06147465f, -0.09857731f, -0.18475477f, -0.21024275f, -0.07789269f,  0.08094230f,
    /* row 125 */  0.04563791f,  0.18608914f, -0.00354485f,  0.08424205f,  0.01114854f, -0.03773900f,  0.08843548f, -0.15360112f, -0.00021565f,  0.05294579f, -0.18606451f, -0.17607477f, -0.16785853f,  0.08481864f, -0.16564696f, -0.18507177f,  0.14309023f,  0.09222940f,  0.15083046f, -0.09608773f,  0.16115683f, -0.16385812f,  0.04374777f,  0.07447122f,  0.15365446f,  0.02606458f,  0.02209521f,  0.17158742f,  0.04814686f, -0.19903404f,  0.13004629f,  0.04373050f,
    /* row 126 */  0.09362371f, -0.21173213f,  0.06748319f,  0.21959989f, -0.12333259f, -0.24239661f, -0.07248729f,  0.08614454f, -0.30548847f, -0.06009346f,  0.25074229f,  0.03789953f,  0.04420150f,  0.28692582f,  0.17435083f,  0.00722048f,  0.07395954f, -0.00966966f, -0.22686315f, -0.03802225f, -0.08236622f, -0.05106786f, -0.13679940f, -0.23792931f, -0.20300333f, -0.01490325f, -0.01278651f,  0.10015725f, -0.03740696f,  0.02094226f, -0.19279099f, -0.02097092f,
    /* row 127 */  0.04979220f,  0.16094050f, -0.05630750f,  0.10373304f, -0.06420162f, -0.11943459f, -0.11443982f, -0.09012885f, -0.14363083f,  0.22506210f,  0.06352596f, -0.03658288f, -0.10358555f, -0.25441390f,  0.06822249f, -0.04036002f,  0.08173352f,  0.03753065f, -0.01637369f,  0.07321957f, -0.08889364f,  0.07951917f,  0.23650606f, -0.10611564f,  0.01136802f, -0.04579701f, -0.03553975f, -0.08967227f, -0.08603472f, -0.14236167f, -0.06018490f,  0.00041412f
};

// --- Combined bias: b_ih + b_hh [4*hidden_dim] = [128] ---
const float lstm_bias[128] = {
     0.11976133f,  0.16770536f,  0.19718036f, -0.10732139f, -0.07932714f, -0.16421455f, -0.19676107f,  0.33470166f,
    -0.18401441f,  0.17217654f, -0.00185919f,  0.20327157f,  0.17403421f,  0.24779654f,  0.10401902f, -0.18434450f,
    -0.02113053f,  0.06030682f,  0.03643116f,  0.19511108f,  0.27390784f,  0.07417937f,  0.01888800f,  0.05975585f,
    -0.11550830f, -0.08207513f,  0.19327210f,  0.25426769f,  0.13489261f,  0.14493740f,  0.18805754f, -0.13709231f,
    -0.05122253f,  0.19743520f,  0.05954393f, -0.16151893f,  0.16224015f, -0.10478793f, -0.01580341f,  0.02500957f,
     0.08140396f,  0.05228567f,  0.33369130f,  0.32679370f, -0.22808614f, -0.02873009f, -0.02113332f,  0.12975685f,
     0.15107003f,  0.21741869f,  0.07883899f,  0.07346909f, -0.24389459f, -0.14272967f, -0.21644595f,  0.06483877f,
    -0.05828614f, -0.05680517f,  0.14714076f,  0.20505771f,  0.01120540f, -0.19619286f,  0.00116387f,  0.29205748f,
    -0.08258075f, -0.24197897f, -0.08696751f,  0.00705695f, -0.02054835f,  0.01142371f, -0.06829239f, -0.14836282f,
     0.17856854f,  0.14604369f, -0.14226088f, -0.01245826f, -0.05573456f,  0.10942998f,  0.28397167f,  0.09057372f,
     0.36658293f,  0.07025117f, -0.13084871f, -0.01493578f,  0.29533905f,  0.37416923f,  0.27967066f, -0.24685398f,
    -0.08274832f, -0.06739706f,  0.39562076f, -0.00298473f,  0.07912684f,  0.08393502f,  0.06241422f,  0.08368811f,
     0.21378726f,  0.08629480f, -0.03485092f,  0.04994884f, -0.01860797f,  0.12297304f,  0.06204241f,  0.10335167f,
    -0.05104075f, -0.08709408f,  0.15976273f,  0.38042951f, -0.08056843f,  0.37207031f,  0.01579241f, -0.11636057f,
     0.29051828f, -0.11934005f,  0.10979909f,  0.14576712f,  0.11447586f,  0.51641124f,  0.00555645f, -0.04033674f,
     0.15081951f,  0.24391013f, -0.05293641f,  0.18999620f, -0.13353552f,  0.07173428f,  0.17315756f,  0.19432405f
};

// --- Gate 'i' input weights [32, 7] ---
// Shape: [32][7], stored row-major
const float lstm_w_ih_i[224] = {
    /* row   0 */ -0.08852281f, -0.09710800f, -0.08382191f,  0.07590245f,  0.10883257f, -0.08523901f,  0.07575406f,
    /* row   1 */ -0.02907213f, -0.22639324f, -0.04062429f, -0.07928796f, -0.06262541f,  0.09083575f, -0.07041688f,
    /* row   2 */  0.08364759f,  0.00993327f, -0.03865722f,  0.02264521f,  0.00375935f, -0.11766945f,  0.20817311f,
    /* row   3 */ -0.22396742f, -0.29879382f,  0.05839906f,  0.11073144f, -0.12094497f, -0.02687384f, -0.07786328f,
    /* row   4 */  0.16114311f,  0.00980018f, -0.16904213f, -0.21979047f,  0.10206201f, -0.19656485f,  0.12142383f,
    /* row   5 */ -0.05263425f, -0.12914091f,  0.18840222f,  0.08355744f, -0.09869970f,  0.06613047f, -0.02026845f,
    /* row   6 */  0.03806803f,  0.15785660f,  0.13123284f,  0.11224917f,  0.15642254f,  0.04552549f,  0.14271070f,
    /* row   7 */  0.02285164f, -0.00394795f,  0.03308302f,  0.00709698f, -0.21682586f,  0.09654623f, -0.03373826f,
    /* row   8 */  0.04422230f,  0.01052947f, -0.03207534f,  0.12839352f, -0.16398714f,  0.22428106f, -0.02622512f,
    /* row   9 */  0.15404925f,  0.01747862f,  0.01595864f,  0.12211142f,  0.05359378f, -0.08466449f,  0.02007767f,
    /* row  10 */  0.04676630f,  0.00733882f, -0.06315622f, -0.01370313f, -0.08774885f, -0.01226295f, -0.19342645f,
    /* row  11 */ -0.09872900f, -0.13064286f,  0.07712709f,  0.02070391f, -0.24095096f, -0.00066308f, -0.11651850f,
    /* row  12 */ -0.02042818f, -0.07941885f, -0.13656217f, -0.07242461f, -0.15445235f,  0.09424093f,  0.06914749f,
    /* row  13 */  0.06612341f,  0.12539588f,  0.22255105f, -0.03002916f, -0.03437634f,  0.19192481f, -0.11725605f,
    /* row  14 */ -0.01208372f,  0.02984025f,  0.11613515f, -0.02452355f, -0.12572616f,  0.03161935f,  0.11527675f,
    /* row  15 */ -0.06392731f,  0.37433991f, -0.03518981f, -0.01842217f,  0.10048273f,  0.09370215f,  0.16238493f,
    /* row  16 */  0.01076268f, -0.14176176f,  0.14458972f, -0.09872764f,  0.13290393f, -0.08584525f, -0.09581961f,
    /* row  17 */ -0.12450309f, -0.10940105f, -0.08301979f,  0.18444283f, -0.02194513f, -0.05006077f,  0.14530122f,
    /* row  18 */  0.09711694f,  0.06963205f, -0.04045630f,  0.11742943f,  0.02760515f, -0.03482813f,  0.14583592f,
    /* row  19 */  0.22812772f,  0.19682658f,  0.05404491f, -0.00551856f, -0.02896539f, -0.08930393f,  0.13648878f,
    /* row  20 */  0.14745972f,  0.17929310f,  0.05046270f, -0.20066653f, -0.04854945f, -0.11214051f,  0.07867154f,
    /* row  21 */  0.10103322f, -0.18831804f,  0.02493720f, -0.07602390f,  0.03455408f,  0.09814860f, -0.14994176f,
    /* row  22 */  0.15977858f,  0.20843261f, -0.08444843f, -0.17890112f,  0.14562526f,  0.06203919f,  0.07867006f,
    /* row  23 */ -0.13782528f,  0.11464885f,  0.12024923f,  0.03434421f, -0.02427484f, -0.17326042f,  0.18764994f,
    /* row  24 */  0.03564996f,  0.03180913f,  0.03751037f, -0.01089885f, -0.12653337f, -0.05387481f,  0.07732597f,
    /* row  25 */  0.02562364f,  0.12488121f,  0.14168079f, -0.02063925f, -0.07153191f,  0.06579901f,  0.19245178f,
    /* row  26 */ -0.00217827f, -0.24272798f,  0.18403651f,  0.15198091f, -0.04736836f, -0.04618823f, -0.09839590f,
    /* row  27 */  0.01855437f, -0.15374915f,  0.04214295f, -0.09305399f, -0.15474279f, -0.05324677f, -0.18374337f,
    /* row  28 */  0.06575039f,  0.09368541f, -0.12460418f,  0.28837562f, -0.02394938f, -0.14843601f,  0.06420688f,
    /* row  29 */  0.13123628f,  0.26689678f,  0.01939063f, -0.16076250f,  0.03961361f,  0.11781830f,  0.12437218f,
    /* row  30 */ -0.04201624f, -0.05305146f,  0.20330882f,  0.19719665f, -0.12471256f,  0.12383610f, -0.11065041f,
    /* row  31 */  0.03531775f, -0.09518930f, -0.13087800f, -0.16352487f, -0.00307969f,  0.06906395f,  0.06556492f
};

// --- Gate 'i' hidden weights [32, 32] ---
// Shape: [32][32], stored row-major
const float lstm_w_hh_i[1024] = {
    /* row   0 */ -0.10896862f,  0.07900800f, -0.10380734f,  0.02586893f, -0.12154770f, -0.10776644f, -0.06195146f, -0.01331879f,  0.00112372f,  0.16411474f, -0.00522034f,  0.13013627f, -0.03751202f,  0.04130323f,  0.03123962f, -0.11720609f,  0.17551990f,  0.03133440f,  0.04462431f, -0.20872946f, -0.04900214f,  0.12437955f, -0.02459872f,  0.05628269f,  0.12665488f,  0.01642042f,  0.07047157f,  0.09729853f, -0.18603250f, -0.12433307f,  0.04164579f, -0.06902861f,
    /* row   1 */  0.02413087f, -0.19843802f,  0.12134238f, -0.07865954f, -0.09126493f, -0.17449181f, -0.22436076f,  0.03900273f,  0.01936827f,  0.10798859f,  0.00254271f,  0.15264505f, -0.18137014f, -0.12810639f, -0.06180446f, -0.03284423f, -0.00083433f, -0.05507150f, -0.15382224f, -0.11256985f,  0.09485779f, -0.06503663f,  0.10204469f, -0.02978759f,  0.01491072f, -0.17555255f,  0.04175133f,  0.01420969f,  0.01857025f,  0.12412678f, -0.08669623f,  0.11656809f,
    /* row   2 */ -0.16633169f, -0.11987006f, -0.10356124f, -0.06131529f,  0.03460525f, -0.01332989f, -0.12397490f, -0.09775316f, -0.09134099f,  0.15559296f,  0.10981674f, -0.11426912f,  0.10766831f,  0.11158077f,  0.11789768f, -0.03198784f, -0.11752649f, -0.17463879f,  0.04815016f,  0.13088466f,  0.14112180f,  0.02139949f,  0.00486079f, -0.05525489f, -0.07669348f, -0.06977673f,  0.04878021f,  0.13863033f, -0.11624438f,  0.15205340f, -0.09898387f, -0.15497705f,
    /* row   3 */ -0.05679965f,  0.05672826f,  0.20792027f, -0.05332690f,  0.08218378f, -0.03108226f, -0.17494684f, -0.02999656f, -0.04770418f, -0.04822008f,  0.10600929f,  0.13938378f,  0.12471385f,  0.20351522f,  0.04568016f, -0.13720462f,  0.03705689f,  0.05354436f, -0.10239609f, -0.05661262f,  0.13433674f, -0.09414606f, -0.14362825f, -0.05779723f, -0.20470382f,  0.12344006f,  0.20223734f,  0.21963838f, -0.21037102f, -0.05719934f, -0.02164683f, -0.00154024f,
    /* row   4 */ -0.02237339f,  0.19695976f, -0.16565768f, -0.14430107f, -0.13043967f, -0.06952871f, -0.05730962f, -0.10356110f, -0.21404058f, -0.13718942f, -0.02166245f,  0.05881914f, -0.08474030f, -0.12045257f,  0.00878989f,  0.11090083f, -0.11248969f, -0.08931048f, -0.00013223f,  0.14091173f, -0.23390590f,  0.17086487f,  0.10224082f, -0.08364742f, -0.00159433f, -0.15167210f,  0.00430331f,  0.06240949f,  0.12801777f, -0.04806702f,  0.07483368f, -0.00745272f,
    /* row   5 */  0.12540062f, -0.01966429f,  0.12202954f,  0.03782390f, -0.13744494f, -0.13778561f, -0.20356001f, -0.23088339f, -0.15587528f,  0.25671029f,  0.19672535f, -0.07934149f, -0.14345928f,  0.22056244f, -0.06577509f,  0.02061019f,  0.05558326f,  0.18251941f,  0.07569679f,  0.04312332f, -0.12100890f,  0.10532633f,  0.02565137f, -0.16680758f, -0.11658046f, -0.18456031f,  0.04054466f,  0.06114002f, -0.09562171f,  0.06422646f, -0.08218856f, -0.06437542f,
    /* row   6 */ -0.11507574f, -0.25738245f,  0.05347564f, -0.03962935f, -0.21299198f, -0.03074750f, -0.09949005f,  0.07673281f,  0.10908151f, -0.20421095f,  0.09769668f,  0.07919663f, -0.16767657f, -0.03637093f, -0.01043709f, -0.21800467f,  0.04690767f, -0.09160635f, -0.12718651f, -0.08855213f,  0.19128844f,  0.12724158f, -0.05966764f,  0.14093848f, -0.06455542f, -0.20265710f,  0.14816798f, -0.02255170f,  0.12814854f,  0.19662017f,  0.05860611f, -0.03938425f,
    /* row   7 */  0.08675663f,  0.04285330f,  0.05770195f, -0.02568670f, -0.04699042f, -0.02000412f,  0.13313308f,  0.08597632f, -0.26339516f,  0.07321639f, -0.08035854f,  0.16731980f,  0.08146367f, -0.06666555f, -0.02264593f,  0.06167415f, -0.05151109f,  0.07430803f, -0.02825911f, -0.01014941f, -0.01955487f,  0.17169167f, -0.02256126f, -0.12303858f,  0.05685254f, -0.12561987f, -0.06415586f,  0.18122067f, -0.10170639f,  0.08062013f, -0.02570278f, -0.01441414f,
    /* row   8 */ -0.15540913f, -0.15268783f, -0.06077021f, -0.06440537f,  0.05833992f,  0.09451876f,  0.09934137f, -0.05981410f, -0.10149141f,  0.15373123f, -0.10216371f,  0.01133186f, -0.05726378f, -0.02944749f,  0.12144428f,  0.08321987f,  0.03143181f, -0.08127442f,  0.05646334f,  0.00663099f,  0.14842385f, -0.12213030f,  0.08999404f,  0.11022525f,  0.02379862f, -0.09394217f, -0.07908382f,  0.07245485f, -0.13786303f, -0.11630084f, -0.06927294f, -0.03865300f,
    /* row   9 */  0.07097476f,  0.00982831f,  0.18862636f,  0.20013915f, -0.10052878f, -0.05541560f,  0.10303490f, -0.18562001f,  0.13814220f, -0.02588735f,  0.18298322f,  0.10568988f,  0.14749196f, -0.05212106f,  0.11393327f, -0.12482264f,  0.16114679f, -0.06347634f,  0.02423573f,  0.09787918f, -0.02955149f, -0.06910051f, -0.11219648f, -0.13603853f, -0.16225831f,  0.12480849f,  0.00932944f, -0.01689652f, -0.02183588f,  0.16145870f, -0.16000502f, -0.14725243f,
    /* row  10 */ -0.12870120f, -0.00073634f, -0.09353236f, -0.10108003f, -0.02631629f,  0.00614994f, -0.08480557f, -0.16992149f, -0.26695532f, -0.06163464f,  0.22436437f, -0.08251265f, -0.15865169f, -0.06486796f, -0.01471370f,  0.16240314f, -0.01157988f, -0.07077884f, -0.13476008f, -0.24545243f,  0.02069030f,  0.08400755f,  0.05458410f, -0.07869398f, -0.17271645f, -0.11984754f, -0.04725489f,  0.09272887f,  0.09066293f,  0.00143770f, -0.17977194f,  0.11108245f,
    /* row  11 */  0.01655287f, -0.13693298f,  0.21263620f,  0.04173658f,  0.02879797f, -0.06431956f, -0.09936912f, -0.04844296f,  0.11474187f,  0.20332153f,  0.06264950f,  0.09715430f, -0.23378190f,  0.00147478f,  0.09148005f, -0.23627368f, -0.05534799f,  0.08433791f, -0.01771664f,  0.15755232f, -0.18395300f,  0.14406729f,  0.01102150f,  0.01510701f, -0.03469890f, -0.08180793f,  0.15161039f,  0.02875083f,  0.02220248f,  0.09715344f, -0.21089223f,  0.18742993f,
    /* row  12 */ -0.02440136f,  0.04603429f,  0.11495811f,  0.12089019f,  0.14623162f,  0.08513230f,  0.08082377f,  0.22680998f, -0.19623935f, -0.12838507f, -0.06993047f,  0.04722525f,  0.02867246f,  0.00806448f,  0.06679717f, -0.08293548f,  0.09585220f, -0.00487086f,  0.02089040f, -0.06013070f, -0.20073496f, -0.01926108f, -0.09070235f, -0.04255668f,  0.02663231f,  0.12617022f,  0.21387336f,  0.14210783f, -0.11407748f,  0.06858218f,  0.09260920f,  0.03452997f,
    /* row  13 */ -0.10182361f, -0.10528309f,  0.18775091f,  0.21842113f, -0.07059734f, -0.11517341f,  0.01488653f, -0.26451799f,  0.01552514f,  0.19925439f,  0.13223739f,  0.11928254f, -0.05190625f,  0.02457882f,  0.16208932f, -0.18012404f,  0.13666713f,  0.16707276f, -0.08783539f, -0.15889186f,  0.08543234f,  0.00356806f, -0.12514079f, -0.22897837f, -0.28247395f, -0.12337523f,  0.05176514f,  0.00247876f,  0.04907403f,  0.30047292f, -0.24794354f,  0.34148353f,
    /* row  14 */  0.06635534f, -0.12635165f,  0.15774156f,  0.03299457f,  0.04061927f, -0.14698885f,  0.14477074f,  0.02571859f,  0.16873237f, -0.13011339f, -0.09771978f,  0.17950350f,  0.07542065f, -0.17333579f,  0.10865563f, -0.14861076f,  0.05562742f,  0.15091832f, -0.06331648f, -0.16664858f,  0.08336249f,  0.01329391f,  0.11339742f, -0.13224535f,  0.12261942f, -0.05174639f,  0.06839865f,  0.12897687f, -0.17810981f,  0.00655847f, -0.01594966f,  0.17721845f,
    /* row  15 */ -0.00943990f, -0.02887882f, -0.18423480f, -0.11339988f,  0.01631097f,  0.14737755f,  0.03680815f, -0.03240837f,  0.03776293f,  0.06277112f, -0.22880885f, -0.03597664f,  0.14187047f, -0.04136406f,  0.06445976f,  0.01273429f, -0.13810419f,  0.07958714f, -0.07627845f,  0.05413922f,  0.02510029f, -0.05964547f, -0.17929755f,  0.00500178f, -0.04002365f,  0.18323295f,  0.12097410f, -0.09483492f,  0.08958872f,  0.06319520f, -0.06966963f, -0.06679615f,
    /* row  16 */ -0.05109511f, -0.21200567f, -0.10272670f,  0.25764397f, -0.00702861f, -0.20484917f, -0.00826082f,  0.05401369f, -0.03806747f,  0.09230897f,  0.01344340f,  0.26078224f, -0.05434178f, -0.07478885f,  0.01209674f, -0.13276878f,  0.08309221f, -0.09131844f,  0.09453197f, -0.00501757f, -0.15695024f,  0.03987064f,  0.14984772f,  0.01688866f, -0.24892983f, -0.07923170f,  0.02054537f,  0.23023266f,  0.09309672f, -0.12233926f,  0.03271458f,  0.06088358f,
    /* row  17 */  0.14568588f, -0.14750198f, -0.01488162f, -0.10799161f, -0.04246675f,  0.15252773f,  0.12907015f, -0.10164799f, -0.15201147f,  0.07894773f, -0.06506146f, -0.12837127f, -0.14291427f, -0.00772370f, -0.04152553f,  0.12112832f,  0.13716614f,  0.10480497f, -0.16051361f,  0.12713161f,  0.07903628f, -0.02474267f,  0.18193908f,  0.15504432f, -0.12139607f, -0.03524015f, -0.00777587f,  0.19553667f, -0.16712813f,  0.03987054f,  0.02613753f, -0.02669785f,
    /* row  18 */ -0.07752666f, -0.12361028f, -0.04016597f,  0.03957506f,  0.03112291f,  0.13422213f, -0.03355089f,  0.15672849f, -0.28671539f, -0.16757230f,  0.00134324f, -0.07730902f,  0.10045634f,  0.07383712f,  0.07091829f, -0.02423896f,  0.06113510f, -0.15047044f,  0.15590826f,  0.18537323f, -0.11301596f,  0.09146017f, -0.09098457f, -0.02661664f,  0.12941416f, -0.19297941f, -0.05336925f,  0.01706389f, -0.12865654f, -0.08245083f, -0.16324718f, -0.08212911f,
    /* row  19 */  0.01744292f,  0.05548735f,  0.00688483f,  0.02287020f, -0.12139088f, -0.06191014f,  0.07819588f, -0.08925376f, -0.05681130f, -0.03115780f,  0.17729260f, -0.11059795f, -0.12951569f, -0.10184504f, -0.14912102f,  0.01730464f,  0.09199223f, -0.09006652f,  0.04845851f, -0.11464573f,  0.07385284f, -0.02773924f,  0.18584563f,  0.01457867f,  0.08376380f,  0.12380180f, -0.08475385f, -0.12306046f, -0.01051408f,  0.19134930f, -0.05368045f, -0.12549888f,
    /* row  20 */ -0.07467147f, -0.13941796f, -0.10936763f, -0.03543606f,  0.01322612f, -0.10349452f, -0.07790890f, -0.05886769f,  0.21123968f,  0.05191367f, -0.14467670f, -0.06759880f,  0.14555317f,  0.06601895f,  0.05702611f, -0.12415046f,  0.11371874f, -0.23046866f, -0.09540066f, -0.02480598f,  0.06261022f, -0.07930087f, -0.10493533f, -0.08404183f,  0.22804961f, -0.10383973f, -0.18243246f, -0.14714369f, -0.18846473f, -0.12610789f,  0.21626228f,  0.02536034f,
    /* row  21 */ -0.12966466f,  0.08310799f,  0.12330764f,  0.07817399f,  0.12962483f, -0.05446138f, -0.18633057f, -0.04630964f, -0.35423309f, -0.05240311f,  0.20091777f,  0.18598458f,  0.00105327f, -0.06036059f,  0.13584588f, -0.16285759f,  0.14010639f,  0.06700824f, -0.10359049f,  0.09795083f, -0.17908618f, -0.07909186f,  0.01552337f, -0.20109186f, -0.17771237f,  0.08885819f,  0.07764531f, -0.09427791f, -0.17337564f, -0.08189168f, -0.11860938f, -0.00362782f,
    /* row  22 */  0.17299825f,  0.03761267f, -0.05088910f,  0.03371579f,  0.15613832f,  0.09624318f, -0.12508047f,  0.11002287f,  0.07715113f, -0.14177014f, -0.08602983f,  0.09012218f,  0.10313097f,  0.11888723f, -0.16178170f,  0.08998361f,  0.14926112f, -0.13210025f,  0.17688850f, -0.07038594f,  0.13275811f,  0.12645400f, -0.05702517f,  0.06001864f,  0.03456441f,  0.07060371f,  0.00862254f,  0.11551796f, -0.04460462f,  0.13106962f,  0.01431249f, -0.14528160f,
    /* row  23 */  0.12783040f, -0.08372309f,  0.19296320f, -0.10451856f, -0.18004984f, -0.05956630f,  0.05050180f, -0.04019058f, -0.16858967f,  0.14221272f,  0.18243110f, -0.14344703f, -0.14506230f, -0.03311110f, -0.07363232f,  0.00936006f, -0.05970933f,  0.04193917f,  0.14693508f, -0.12690072f,  0.02999244f,  0.06636349f,  0.01858577f,  0.08079033f, -0.06583270f,  0.01074805f, -0.05563491f,  0.08655743f,  0.07818668f, -0.09178668f, -0.12644450f, -0.09100387f,
    /* row  24 */ -0.04234875f, -0.02388883f,  0.07645170f,  0.17545585f, -0.05987370f, -0.08867162f,  0.04371857f,  0.10353032f, -0.00508172f,  0.01346622f, -0.05055075f,  0.10040175f,  0.08811063f, -0.05391123f, -0.16744977f, -0.03076252f, -0.07841757f, -0.14482768f,  0.07119406f, -0.16975093f,  0.02604464f,  0.15981637f,  0.14345218f, -0.11443004f,  0.04074972f, -0.05343974f, -0.00755908f, -0.04341373f, -0.15479977f, -0.03513600f, -0.08276130f,  0.09510428f,
    /* row  25 */ -0.18123047f,  0.00624024f, -0.00119565f, -0.14283882f, -0.14355446f,  0.12897244f, -0.12920985f,  0.08371721f, -0.19361724f,  0.11911782f,  0.11431080f, -0.03570016f, -0.05712278f,  0.04751765f,  0.12836140f,  0.04207845f,  0.06353927f, -0.10653873f, -0.13923277f,  0.20066905f, -0.13164958f,  0.09713124f,  0.02162676f, -0.03180638f,  0.17973575f, -0.08391384f,  0.11642469f,  0.08275784f, -0.17444147f,  0.03211897f, -0.01264255f,  0.11798711f,
    /* row  26 */ -0.17214517f, -0.10645747f,  0.11095351f, -0.04296586f, -0.10174090f, -0.07364472f, -0.25112849f, -0.17364964f, -0.31725973f, -0.03428634f, -0.04828810f, -0.03304074f, -0.14142515f,  0.05880367f,  0.10422718f,  0.03386872f,  0.21573198f,  0.14923012f, -0.16962700f,  0.08997933f, -0.09113661f,  0.11682645f, -0.03636214f, -0.16008122f, -0.12202753f,  0.05674855f,  0.02213003f,  0.10754217f,  0.05213896f, -0.17924696f, -0.00084970f, -0.14273927f,
    /* row  27 */  0.04569058f, -0.13550876f, -0.16966733f,  0.06593596f, -0.15751424f, -0.20716527f, -0.12637305f, -0.01307362f, -0.31844324f,  0.16213986f,  0.16582164f, -0.05541584f,  0.00043401f,  0.00679221f, -0.11205306f, -0.08229723f,  0.00864295f, -0.09577260f, -0.09175459f, -0.02334360f, -0.07655511f, -0.01654275f, -0.00744439f, -0.24641204f,  0.00542221f,  0.16827559f,  0.17937191f,  0.08208854f, -0.16335890f, -0.08437306f, -0.02455587f, -0.05222004f,
    /* row  28 */  0.16325109f,  0.09226664f, -0.16326137f,  0.10730187f,  0.10683541f,  0.10911997f,  0.19377403f,  0.09694024f, -0.15808962f,  0.00508026f, -0.13040519f, -0.13590607f, -0.02997027f,  0.07236936f,  0.09778310f,  0.12244651f, -0.02875504f, -0.13231073f,  0.09971125f, -0.00229883f, -0.10352657f, -0.03643397f, -0.15161933f, -0.10643619f, -0.11843100f,  0.10700550f, -0.17062780f,  0.11590376f, -0.01959123f, -0.03421326f, -0.03712398f,  0.09167551f,
    /* row  29 */  0.17759089f,  0.19387016f, -0.15735035f, -0.08883316f,  0.13654408f, -0.06759386f, -0.09340809f,  0.02358332f,  0.14026175f, -0.13002965f, -0.04335870f, -0.25411361f,  0.06433696f, -0.05452354f,  0.11915395f,  0.14884907f, -0.18749858f, -0.11617140f, -0.09644897f,  0.01177193f,  0.04802845f,  0.03423640f, -0.00477762f,  0.19481814f, -0.03695555f, -0.01244917f, -0.05514079f,  0.02614126f, -0.05635520f,  0.09931249f, -0.06657621f, -0.09376832f,
    /* row  30 */  0.05926879f, -0.22372271f,  0.03562866f, -0.08698478f, -0.13553526f,  0.06577766f, -0.21250415f,  0.11519749f, -0.22557297f, -0.06779012f,  0.22080798f, -0.05811344f,  0.08048784f,  0.28510663f,  0.05713055f,  0.11960307f, -0.00883456f,  0.22652437f,  0.01759800f, -0.06068812f, -0.03817303f,  0.18192220f, -0.03954451f, -0.22197567f, -0.11881305f,  0.10501323f, -0.06617018f, -0.04636599f,  0.03122012f,  0.08604343f, -0.02494802f,  0.13189560f,
    /* row  31 */ -0.08223739f, -0.13373843f, -0.03945031f, -0.00535129f, -0.14660814f, -0.03093156f, -0.05665431f, -0.07171983f, -0.12510619f,  0.06230671f,  0.17965446f, -0.18310112f, -0.23737840f, -0.01814401f, -0.14547740f, -0.01099048f, -0.00185271f, -0.06027061f, -0.14198968f, -0.03485987f, -0.10686738f,  0.21238925f,  0.12448408f,  0.24157351f, -0.05918442f,  0.07209273f,  0.19189304f, -0.07568266f, -0.26088428f,  0.03979931f, -0.11677492f,  0.00801913f
};

// --- Gate 'i' bias [32] ---
const float lstm_b_i[32] = {
     0.11976133f,  0.16770536f,  0.19718036f, -0.10732139f, -0.07932714f, -0.16421455f, -0.19676107f,  0.33470166f,
    -0.18401441f,  0.17217654f, -0.00185919f,  0.20327157f,  0.17403421f,  0.24779654f,  0.10401902f, -0.18434450f,
    -0.02113053f,  0.06030682f,  0.03643116f,  0.19511108f,  0.27390784f,  0.07417937f,  0.01888800f,  0.05975585f,
    -0.11550830f, -0.08207513f,  0.19327210f,  0.25426769f,  0.13489261f,  0.14493740f,  0.18805754f, -0.13709231f
};

// --- Gate 'f' input weights [32, 7] ---
// Shape: [32][7], stored row-major
const float lstm_w_ih_f[224] = {
    /* row   0 */ -0.02209348f,  0.06455874f, -0.05978867f, -0.14259304f,  0.12063510f, -0.15308055f,  0.12058216f,
    /* row   1 */ -0.09362942f, -0.14913751f,  0.14239725f,  0.05025961f, -0.06512875f, -0.11532089f, -0.05752436f,
    /* row   2 */  0.03336425f, -0.16647950f, -0.02244368f, -0.02283507f, -0.13545436f, -0.07999297f,  0.09319127f,
    /* row   3 */  0.04881410f, -0.18523794f, -0.02590247f,  0.09148296f, -0.15195462f,  0.11633427f, -0.11761824f,
    /* row   4 */  0.09062535f,  0.10359484f,  0.13417265f,  0.03371444f,  0.11790681f, -0.16469222f, -0.03493679f,
    /* row   5 */ -0.00329094f, -0.13519654f,  0.02971465f,  0.16051719f,  0.04322212f,  0.17040347f, -0.02720625f,
    /* row   6 */ -0.15450597f, -0.06190488f,  0.01450774f,  0.19937006f, -0.17090032f,  0.18518932f,  0.02008881f,
    /* row   7 */  0.08056421f, -0.07184982f,  0.04621121f, -0.13209708f, -0.23479377f, -0.09185580f, -0.02541360f,
    /* row   8 */  0.07954575f, -0.09694308f, -0.02030152f, -0.13735661f, -0.13792177f,  0.00554694f,  0.19123933f,
    /* row   9 */  0.04577730f,  0.07388760f,  0.17199665f, -0.04387906f, -0.06192665f, -0.06232848f,  0.08046153f,
    /* row  10 */  0.06418436f,  0.01498587f,  0.16251510f,  0.09591244f,  0.16980158f, -0.04795911f,  0.07037088f,
    /* row  11 */ -0.09324834f, -0.00637671f, -0.02877735f, -0.01970152f, -0.00263688f,  0.02264083f,  0.15923406f,
    /* row  12 */  0.13543306f,  0.04863735f, -0.02077284f,  0.08824304f, -0.04497138f,  0.10651270f,  0.08629183f,
    /* row  13 */  0.18997535f,  0.25808319f, -0.00614993f,  0.05480340f, -0.11879805f,  0.21105319f,  0.02440582f,
    /* row  14 */ -0.00326085f, -0.05205448f,  0.13945076f, -0.07774370f,  0.09511296f, -0.07132363f,  0.11170217f,
    /* row  15 */  0.08188333f,  0.15173806f, -0.20741405f,  0.02078507f,  0.04462933f, -0.03386018f, -0.18938662f,
    /* row  16 */ -0.11666196f, -0.14456290f, -0.03753144f,  0.20392042f,  0.01243694f, -0.03083543f, -0.00849850f,
    /* row  17 */  0.05878455f,  0.24782482f, -0.13113159f,  0.08737879f, -0.02819370f, -0.04650268f, -0.00252119f,
    /* row  18 */ -0.01166489f,  0.01989867f,  0.19155385f, -0.13756694f, -0.01985685f,  0.11649068f, -0.08733744f,
    /* row  19 */  0.01385898f, -0.08207811f,  0.00346650f, -0.05326795f,  0.01632184f, -0.08501419f,  0.08144851f,
    /* row  20 */ -0.02188977f, -0.12764372f, -0.11016222f, -0.10837834f, -0.05437791f, -0.04237191f, -0.15396351f,
    /* row  21 */ -0.21791467f, -0.26726258f, -0.04023616f, -0.04973691f, -0.17888261f, -0.07293507f,  0.04964801f,
    /* row  22 */ -0.18884860f, -0.00533681f,  0.00825946f,  0.05972616f,  0.16658868f,  0.07188613f,  0.01533192f,
    /* row  23 */ -0.08614524f,  0.08379145f,  0.10759019f, -0.02104539f,  0.14979452f, -0.17264684f,  0.06752948f,
    /* row  24 */  0.07944646f, -0.14322996f,  0.17964382f,  0.03131108f, -0.16549656f,  0.13222545f,  0.11045073f,
    /* row  25 */ -0.18718956f,  0.18561673f,  0.06709580f,  0.04445042f,  0.08013227f, -0.01251696f, -0.04986364f,
    /* row  26 */ -0.10048012f,  0.04201934f,  0.04516155f, -0.04049911f, -0.13092081f, -0.22237089f, -0.03268686f,
    /* row  27 */ -0.23950894f, -0.07957730f,  0.15819253f,  0.19471690f,  0.05176778f,  0.03307022f,  0.09236048f,
    /* row  28 */  0.03729593f, -0.22048418f,  0.02351471f, -0.09797912f,  0.02352855f, -0.20147388f,  0.10266541f,
    /* row  29 */  0.00329874f,  0.10595941f, -0.01288467f, -0.00072129f,  0.05645323f, -0.01179486f, -0.19171025f,
    /* row  30 */ -0.13210227f,  0.03771637f, -0.00542344f,  0.08557200f, -0.17681849f,  0.21778890f,  0.00961075f,
