#ifndef WEIGHTS_SIMILARITY_H
#define WEIGHTS_SIMILARITY_H

// Similarity head
// FC1: Linear(48, 16) -> ReLU
// FC2: Linear(16, 1) -> Sigmoid

// --- FC1 weights [16, 48] ---
// Shape: [16][48], stored row-major
const float sim_fc1_weight[768] = {
    /* row   0 */ -0.07297283f,  0.09705639f,  0.00079103f, -0.00504018f,  0.02252702f, -0.13002244f,  0.05037269f, -0.05840972f, -0.13962406f, -0.05252316f,  0.05854460f, -0.07195181f, -0.02202553f,  0.00162169f, -0.15642016f,  0.01696734f, -0.12523156f, -0.01521360f, -0.14349277f,  0.02958659f, -0.03177679f,  0.02419554f,  0.03737848f,  0.19309816f,  0.02285696f, -0.00252985f,  0.08286937f,  0.00252887f, -0.00275938f, -0.08247396f, -0.17846228f, -0.18087281f, -0.09692091f, -0.09542800f, -0.05841843f, -0.17782205f, -0.38376322f, -0.12403911f, -0.08040766f, -0.12995373f, -0.25789562f, -0.05295135f, -0.33033410f, -0.07782613f, -0.18912847f, -0.15473452f, -0.12959871f, -0.22594713f,
    /* row   1 */ -0.07338503f, -0.07859302f, -0.04553112f, -0.08779019f, -0.08612411f,  0.11615513f,  0.01196141f,  0.13336159f,  0.05274373f, -0.09330945f,  0.00816823f, -0.07360660f, -0.06142270f, -0.09858961f,  0.12740068f, -0.06543595f, -0.01060206f, -0.09832332f,  0.05388009f,  0.05373090f, -0.07086583f, -0.23714538f, -0.05608355f,  0.06438283f,  0.11488111f,  0.04098484f,  0.03659035f,  0.06274078f, -0.16857971f,  0.11497033f,  0.04439859f,  0.15806355f,  0.02181540f,  0.06753407f,  0.17601736f,  0.18573993f,  0.15676157f,  0.28177106f,  0.07168815f,  0.08845114f,  0.21510692f,  0.17484404f,  0.07898382f,  0.08708993f,  0.19942774f,  0.15177861f,  0.15971470f,  0.26326811f,
    /* row   2 */ -0.11586170f,  0.09898188f,  0.00243275f,  0.11647985f,  0.14198139f, -0.13723779f,  0.15470816f, -0.02535708f,  0.08928473f, -0.01460356f,  0.17870069f, -0.07535818f,  0.12318686f,  0.22005419f, -0.10995933f, -0.13640589f,  0.23951867f, -0.31865731f,  0.31399760f, -0.10344170f,  0.06398176f, -0.20980498f,  0.16366777f, -0.05067358f,  0.08353584f,  0.43166888f,  0.09549098f, -0.33763239f, -0.20968544f,  0.24528588f,  0.29784480f,  0.13340981f,  0.06466746f,  0.30003914f,  0.25080487f,  0.26167044f,  0.09163123f,  0.26342478f,  0.08191878f,  0.26068240f,  0.06435117f,  0.18028817f,  0.09178876f,  0.03735840f,  0.03046595f,  0.13797927f,  0.19692145f,  0.28725204f,
    /* row   3 */  0.10464628f, -0.01600464f,  0.05568294f, -0.01917729f,  0.03924078f, -0.00412974f, -0.11607528f,  0.04691009f, -0.01239133f,  0.05564687f, -0.09175511f, -0.08907928f, -0.08330204f,  0.09475897f,  0.05687416f,  0.01079574f,  0.12459698f, -0.03694944f,  0.02215587f, -0.06482128f, -0.11115088f,  0.10477401f, -0.04630128f, -0.05620735f, -0.07074355f, -0.01449446f, -0.03937095f, -0.08760329f,  0.12267491f,  0.14072904f, -0.03344158f, -0.09728798f,  0.13289353f,  0.10354821f, -0.03795461f,  0.00866309f, -0.05623569f,  0.08011940f, -0.02691933f,  0.13839936f, -0.01694682f,  0.09224224f, -0.05697013f, -0.12839434f, -0.08548838f,  0.01011874f, -0.03942534f,  0.07140765f,
    /* row   4 */  0.00052751f, -0.11330612f, -0.13630866f, -0.09032024f, -0.13479578f, -0.11479456f,  0.09481531f, -0.14327362f, -0.14795871f, -0.08197671f, -0.00561917f,  0.01311029f,  0.06091763f,  0.10059098f, -0.10965090f,  0.07338953f,  0.20281309f, -0.27523902f,  0.24043970f, -0.03552295f, -0.01926518f, -0.08616443f,  0.10018099f, -0.04666886f,  0.23017685f,  0.19079594f,  0.24243109f, -0.06230474f, -0.03446056f,  0.08164766f,  0.22910993f,  0.06581793f,  0.19750220f,  0.18139423f,  0.20233716f,  0.15839106f,  0.01541015f,  0.14443345f,  0.03793869f,  0.20826705f,  0.02984199f,  0.29033905f,  0.07421526f,  0.23783463f,  0.12622678f,  0.03664757f,  0.05095846f,  0.02691931f,
    /* row   5 */  0.11597769f,  0.03354932f,  0.11552384f,  0.09107457f,  0.10787729f, -0.03638750f,  0.05721530f, -0.09218970f,  0.16303810f, -0.02199776f,  0.03881658f,  0.11233768f, -0.10264887f, -0.06361089f, -0.05541873f, -0.04032753f,  0.11417542f,  0.10291068f,  0.06401735f, -0.08692986f, -0.00453195f,  0.06967526f, -0.01203750f, -0.06859579f, -0.07992662f,  0.12665270f, -0.06146893f, -0.12237433f, -0.00004840f, -0.01737271f, -0.14853401f, -0.08497024f,  0.10878057f,  0.10937786f,  0.01838662f, -0.06777975f, -0.03580320f, -0.06920974f,  0.00838757f, -0.09435359f,  0.10436846f,  0.09424525f,  0.10242881f, -0.16196030f, -0.09329379f,  0.04341659f,  0.08450028f, -0.05661772f,
    /* row   6 */ -0.14792006f, -0.08721382f,  0.08779958f, -0.06303473f,  0.08351370f,  0.12114084f,  0.10036067f,  0.10226991f, -0.09924269f, -0.04083673f, -0.04858448f,  0.18162008f,  0.15347855f,  0.07940511f,  0.06546339f, -0.01881194f, -0.19600239f,  0.02468801f,  0.04498693f, -0.05299489f,  0.02968201f, -0.09102973f, -0.06709142f,  0.18551616f, -0.04256750f,  0.02627237f, -0.06752573f,  0.11103785f,  0.06105586f,  0.01840864f, -0.03270635f, -0.12129655f, -0.17367439f, -0.20436287f, -0.25687313f, -0.04862317f, -0.21589896f, -0.14403607f,  0.05027009f, -0.25502291f, -0.05888615f, -0.21557939f, -0.09801376f, -0.23699066f, -0.15900956f, -0.07632585f, -0.06459011f, -0.06221867f,
    /* row   7 */ -0.08815214f, -0.03780064f, -0.13345638f,  0.01938533f,  0.09977469f, -0.11933914f, -0.05498365f,  0.06554685f, -0.12095239f,  0.01688093f,  0.07877236f, -0.07832090f, -0.00901019f, -0.09425118f, -0.04375550f,  0.13141397f, -0.06184811f,  0.09282613f, -0.01943343f, -0.04823777f, -0.06751451f,  0.12834732f,  0.10329321f,  0.07249355f, -0.17650737f,  0.01480892f, -0.09631933f,  0.22137770f,  0.14768213f,  0.00054837f, -0.20012091f, -0.08265826f, -0.03474882f, -0.20351937f, -0.29492506f, -0.01494412f, -0.27602965f, -0.05868403f, -0.02252452f, -0.14223008f, -0.13041307f,  0.00220600f, -0.20048705f, -0.22890618f,  0.00600941f, -0.08127875f, -0.24747324f, -0.07596057f,
    /* row   8 */ -0.09376731f,  0.16377516f,  0.09455155f, -0.02723800f, -0.02645412f,  0.02514876f,  0.11011404f,  0.10924077f, -0.05097184f, -0.14794436f,  0.03460279f,  0.10323672f, -0.02963535f, -0.05177142f, -0.02840777f,  0.09317916f, -0.11019809f,  0.17239456f, -0.07888404f,  0.19179657f, -0.05289562f,  0.00745505f,  0.16768871f, -0.02442107f, -0.04804286f, -0.03994735f, -0.06270988f,  0.18507898f,  0.11993132f, -0.03752305f, -0.01518267f, -0.03058374f, -0.17909567f, -0.04693071f, -0.29190564f, -0.33986026f, -0.42429668f, -0.24954796f, -0.15873691f, -0.15028590f, -0.27694699f, -0.04449432f, -0.33384669f, -0.33588162f, -0.23524506f, -0.10521686f, -0.17842770f, -0.12251277f,
    /* row   9 */ -0.16521885f, -0.08443024f, -0.03295968f,  0.15196216f, -0.02630859f,  0.06232582f,  0.08274329f,  0.13522883f,  0.01072936f,  0.08262254f, -0.00226797f, -0.05166189f,  0.14897265f,  0.19876920f, -0.00412018f,  0.08068400f, -0.00449294f, -0.26146096f, -0.01506195f, -0.19656833f,  0.04734785f, -0.23253863f, -0.07074953f, -0.20068716f,  0.18990567f,  0.19544980f,  0.20321685f, -0.15017132f, -0.18729733f,  0.13277359f,  0.24553941f, -0.00575778f,  0.06837352f,  0.24555281f,  0.10244013f,  0.15099435f,  0.00336511f,  0.28143522f,  0.04394932f,  0.06368461f,  0.01253557f,  0.10727320f,  0.08767534f,  0.07759011f,  0.17176846f,  0.13110028f, -0.00337414f,  0.08785042f,
    /* row  10 */  0.09671654f,  0.10946000f, -0.05930720f,  0.10910915f,  0.02725744f, -0.15346356f, -0.00539716f, -0.06355027f,  0.03741522f,  0.10153633f, -0.07076462f,  0.03201167f,  0.05577530f, -0.04765291f, -0.04585151f,  0.04878184f, -0.12453791f,  0.06185324f, -0.12181216f,  0.14718144f,  0.02933774f,  0.12506485f,  0.08815863f,  0.10510177f, -0.14580821f, -0.10762487f,  0.13632374f,  0.09607188f,  0.10667533f,  0.03787060f,  0.08215472f, -0.01027425f, -0.05794341f, -0.06127095f, -0.24461874f, -0.24039738f, -0.29984832f, -0.06452309f,  0.01243910f, -0.15430121f, -0.19761927f, -0.06652340f, -0.18652077f, -0.11485416f, -0.08884040f, -0.17704391f, -0.15059540f, -0.01846589f,
    /* row  11 */  0.13260406f,  0.06834705f,  0.05479686f,  0.06482579f, -0.04442152f,  0.11054462f,  0.08709857f,  0.00346653f, -0.04357494f, -0.01328492f, -0.03182812f, -0.05232350f, -0.03565711f, -0.04293148f, -0.04370186f,  0.09952484f, -0.07391772f, -0.10247932f,  0.12597793f,  0.09584564f, -0.05035779f,  0.02614717f, -0.12846500f,  0.04479593f, -0.00584146f,  0.09002525f,  0.13784969f, -0.10036243f, -0.10343646f, -0.09097255f, -0.02916896f,  0.13005781f,  0.01428549f, -0.08657785f,  0.03136329f, -0.00765167f, -0.12167212f,  0.08325183f,  0.04875149f,  0.00962009f, -0.01159748f, -0.11809402f, -0.12865876f, -0.07081368f,  0.03870563f, -0.04827335f, -0.01110411f, -0.11431058f,
    /* row  12 */ -0.04652078f, -0.00552129f, -0.01956455f,  0.08155843f, -0.08681590f,  0.05237091f, -0.10080874f, -0.03767897f, -0.12008734f, -0.15742607f,  0.04901994f, -0.05710504f, -0.03824002f,  0.03288169f, -0.09342891f, -0.05496952f,  0.01904004f,  0.19188787f,  0.03746841f, -0.00289120f, -0.16334221f,  0.02501466f,  0.10984149f, -0.00760981f, -0.03077354f, -0.11758457f,  0.00910627f,  0.03492377f,  0.20967536f, -0.05922712f,  0.00096362f, -0.17070159f, -0.15251788f, -0.21321255f,  0.01281527f, -0.11489017f, -0.14591533f,  0.02451582f, -0.11391986f, -0.03899054f, -0.19157352f,  0.05498765f, -0.03433888f, -0.20883290f, -0.21614549f, -0.18342656f, -0.18448558f, -0.21935561f,
    /* row  13 */ -0.12410696f, -0.12051450f, -0.13359660f,  0.02045235f,  0.03427073f, -0.09142122f,  0.07966275f,  0.06660092f,  0.04869694f, -0.03581192f,  0.07107681f, -0.14508359f,  0.09071368f,  0.15009440f, -0.04254345f, -0.10752375f, -0.05672260f,  0.15919711f, -0.11924893f,  0.18572746f, -0.08085925f, -0.07524924f, -0.04579763f,  0.06947760f, -0.18373872f, -0.13817303f,  0.08495423f, -0.03510991f,  0.01030908f, -0.05823857f, -0.04579636f, -0.14311428f, -0.25713471f, -0.23259410f, -0.15876436f, -0.16023518f, -0.35521528f, -0.08753369f,  0.04834321f, -0.16236977f, -0.01853598f, -0.04372061f, -0.13970394f, -0.19352180f, -0.23611698f, -0.07691336f,  0.02322718f, -0.04151094f,
    /* row  14 */  0.15007183f, -0.17002767f, -0.04779595f, -0.14272758f,  0.00622017f,  0.05415274f,  0.00092699f, -0.14821784f,  0.10308336f,  0.04135509f, -0.02453400f,  0.10749977f,  0.04210357f,  0.06758238f, -0.02611675f, -0.07242342f, -0.03704746f, -0.04769726f,  0.13061704f,  0.09493809f, -0.12551831f,  0.00993014f, -0.07967525f,  0.11045063f,  0.01999525f, -0.04023298f, -0.07905784f,  0.08154061f,  0.02334897f,  0.11718976f, -0.02487514f,  0.00982151f, -0.05689039f,  0.08927517f,  0.10411768f, -0.00187969f, -0.03714652f, -0.06998188f, -0.11810844f,  0.13234000f, -0.11763804f,  0.03318081f, -0.04699859f,  0.04170413f,  0.04699080f,  0.05434548f, -0.05738606f,  0.01990649f,
    /* row  15 */  0.00208301f,  0.00192759f,  0.00411494f, -0.03818863f, -0.10395042f, -0.05918874f,  0.01951874f,  0.12281100f,  0.04735303f,  0.03495685f,  0.00619450f, -0.00983636f, -0.11094930f, -0.11639268f, -0.04726492f,  0.12811020f, -0.05040618f, -0.01431012f,  0.10454826f,  0.04780554f,  0.03024867f, -0.00563295f, -0.09266233f,  0.12692051f,  0.05895957f, -0.04197428f, -0.07616093f, -0.05517476f, -0.09830126f, -0.10452580f, -0.04494530f, -0.10520825f,  0.05702278f,  0.03949666f,  0.10971139f,  0.05785008f,  0.04351272f,  0.03076047f, -0.09508003f, -0.14040358f,  0.02877368f,  0.08870225f, -0.09692919f, -0.15344766f, -0.05712137f,  0.06506304f, -0.13318959f,  0.01484436f
};

const float sim_fc1_bias[16] = {
     0.08048625f, -0.08916473f,  0.12874700f, -0.12077203f,  0.10496538f, -0.03283792f,  0.12915680f,  0.12486191f,
     0.12083733f, -0.05338594f,  0.06770553f, -0.13774414f, -0.07481990f, -0.03338177f, -0.04983284f, -0.14259484f
};

// --- FC2 weights [1, 16] ---
// Shape: [1][16], stored row-major
const float sim_fc2_weight[16] = {
    /* row   0 */  0.27252653f, -0.18323749f, -0.15596920f, -0.18665126f, -0.23392935f,  0.12895437f,  0.24585778f,  0.20383330f,  0.19179870f, -0.24380855f,  0.29243597f,  0.02428606f,  0.17630506f,  0.26715469f,  0.00737157f,  0.23285349f
};

const float sim_fc2_bias[1] = {
     0.12490554f
};

#endif // WEIGHTS_SIMILARITY_H